svm_type c_svc
kernel_type rbf
gamma 0.0001
nr_class 7
total_sv 214
rho 0.0648332 0.46498 -0.321945 -0.528814 0.127945 -0.696925 0.43704 -0.35186 -0.544763 0.0345268 -0.754204 -0.707882 -0.801755 -0.376489 -0.882628 -0.152262 0.405413 -0.230752 0.609001 -0.138048 -0.778783
label 0 1 2 3 4 5 6
nr_sv 31 25 34 31 33 25 35
SV
0 0.4010384803273054 0 0 0 0 1:19 2:4 3:0 4:1 5:4 6:1 7:5 8:6 9:4 10:2 11:3 12:1 13:3 14:2 15:1 16:6 17:2 18:0 19:0 20:0 21:3 22:2 23:2 24:3 25:0 26:3 27:2 28:2 29:3 30:0 31:3 32:0 33:0 34:2 35:1 36:2 37:1 38:0 39:1 40:1 41:2 42:1 43:1 44:1 45:2 46:2 47:1 48:4 49:0 50:0 51:3 52:0 53:0 54:1 55:2 56:0 57:0 58:2 59:0 60:0 61:2 62:3 63:1 64:3 65:0 66:0 67:1 68:1 69:0 70:0 71:0 72:0 73:1 74:4 75:3 76:3 77:2 78:2 79:1 80:0 81:0 82:0 83:0 84:2 85:0 86:0 87:1 88:1 89:0 90:0 91:0 92:0 93:12 94:6 95:0 96:1 97:0 98:2 99:1 100:0 101:0 102:0 103:0 104:3 105:0 106:1 107:0 108:0 109:2 110:0 111:1 112:0 113:1 114:1 115:0 116:0 117:1 118:0 119:0 120:0 121:2 122:0 123:1 124:0 125:0 126:1 127:1 128:0 129:0 130:1 131:0 132:1 133:1 134:1 135:3 136:2 137:0 138:1 139:0 140:1 141:0 142:0 143:1 144:0 145:0 146:0 147:0 148:0 149:0 150:0 151:0 152:0 153:0 154:0 155:0 156:0 157:4 158:0 159:0 160:0 161:2 162:1 163:1 164:1 165:1 166:1 167:0 168:0 169:3 170:0 171:0 172:0 173:2 174:0 175:0 176:0 177:0 178:0 179:1 180:0 181:0 182:1 183:0 184:2 185:0 186:0 187:1 188:2 189:0 190:0 191:4 192:0 193:0 194:3 195:2 196:0 197:0 198:0 199:0 200:0 201:0 202:0 203:2 204:0 205:0 206:1 207:0 208:1 209:0 210:0 211:1 212:0 213:0 214:0 215:0 216:1 217:0 218:0 219:0 220:0 221:1 222:0 223:0 224:1 225:1 226:0 227:2 228:0 229:1 230:0 231:0 232:0 233:0 234:0 235:0 236:2 237:0 238:5 239:0 240:0 241:0 242:2 243:2 244:0 245:0 246:0 247:1 248:0 249:7 250:0 251:1 252:0 253:3 254:0 255:0 256:2 257:0 258:0 259:2 260:1 261:3 262:0 263:0 264:0 265:0 266:1 267:0 268:0 269:3 270:7 271:11 272:0 273:1 274:0 275:0 276:0 277:0 278:0 279:0 280:3 281:0 282:1 283:0 284:5 285:3 286:0 287:0 288:1 289:0 290:0 291:3 292:0 293:0 294:0 295:0 296:0 297:5 298:0 299:0 300:1 301:0 302:0 303:0 304:0 305:0 306:1 307:1 308:0 309:0 310:0 311:0 312:0 313:0 314:0 315:0 316:1 317:0 318:0 319:0 320:0 321:0 322:1 323:0 324:0 325:1 326:2 327:0 328:0 329:1 330:0 331:0 332:0 333:0 334:0 335:0 336:3 337:2 338:0 339:2 340:0 341:0 342:0 343:0 344:0 345:0 346:1 347:0 348:0 349:0 350:0 351:0 352:0 353:0 354:0 355:0 356:1 357:0 358:0 359:0 360:3 361:0 362:0 363:0 364:0 365:0 366:0 367:0 368:1 369:0 370:0 371:3 372:0 373:4 374:1 375:3 376:0 377:0 378:17 379:0 380:0 381:0 382:0 383:0 384:0 385:0 386:0 387:0 388:0 389:0 390:2 391:0 392:0 393:0 394:0 395:0 396:0 397:2 398:0 399:0 400:0 401:0 402:1 403:0 404:1 405:0 406:0 407:0 408:0 409:0 410:0 411:0 412:0 413:0 414:0 415:0 416:0 417:0 418:0 419:0 420:0 421:1 422:0 423:0 424:0 425:0 426:0 427:0 428:0 429:7 430:0 431:0 432:0 433:0 434:0 435:1 436:1 437:0 438:0 439:0 440:0 441:0 442:0 443:0 444:0 445:0 446:1 447:0 448:0 449:0 450:1 451:0 452:2 453:0 454:0 455:0 456:0 457:0 458:0 459:1 460:1 461:0 462:0 463:4 464:0 465:0 466:0 467:0 468:0 469:0 470:1 471:0 472:0 473:0 474:0 475:0 476:0 477:0 478:0 479:0 480:0 481:0 482:0 483:1 484:0 485:0 486:0 487:0 488:1 489:0 490:4 491:1 492:0 493:2 494:0 495:0 496:0 497:0 498:0 499:0 500:0 501:0 502:2 503:0 504:1 505:0 506:0 507:0 508:0 509:0 510:0 511:0 512:0 513:0 514:0 515:0 516:1 517:0 518:0 519:0 520:0 521:0 522:0 523:0 524:0 525:0 526:0 527:0 528:0 529:0 530:0 531:0 532:0 533:0 534:10 535:0 536:0 537:0 538:0 539:0 540:0 541:0 542:0 543:0 544:0 545:0 546:4 547:0 548:0 549:0 550:0 551:1 552:0 553:0 554:1 555:1 556:0 557:0 558:3 559:2 560:0 561:0 562:0 563:0 564:0 565:1 566:0 567:0 568:0 569:0 570:0 571:0 572:0 573:0 574:0 575:0 576:18 577:0 578:0 579:0 580:0 581:1 582:2 583:0 584:0 585:0 586:0 587:0 588:0 589:0 590:1 591:0 592:0 593:0 594:0 595:0 596:0 597:0 598:0 599:0 600:0 601:0 602:0 603:0 604:0 605:0 606:0 607:0 608:0 609:0 610:0 611:0 612:1 613:0 614:0 615:1 616:1 617:0 618:0 619:0 620:0 621:0 622:0 623:0 624:0 625:0 626:0 627:0 628:0 629:0 630:0 631:0 632:0 633:0 634:0 635:0 636:0 637:0 638:0 639:0 640:0 641:0 642:0 643:0 644:2 645:0 646:0 647:0 648:0 649:0 650:0 651:0 652:0 653:0 654:0 655:1 656:1 657:0 658:2 659:0 660:0 661:0 662:0 663:0 664:0 665:0 666:0 667:0 668:0 669:0 670:0 671:1 672:0 673:0 674:0 675:0 676:0 677:0 678:11 679:0 680:0 681:0 682:0 683:0 684:1 685:0 686:0 687:0 688:0 689:0 690:1 691:0 692:0 693:0 694:7 695:4 696:0 697:0 698:0 699:0 700:0 701:0 702:0 703:0 704:0 705:0 706:0 707:0 708:0 709:0 710:0 711:0 712:0 713:0 714:0 715:0 716:0 717:1 718:1 719:0 720:0 721:0 722:0 723:0 724:0 725:0 726:0 727:0 728:0 729:0 730:0 731:0 732:0 733:0 734:0 735:0 736:0 737:0 738:0 739:0 740:0 741:0 742:0 743:0 744:0 745:0 746:0 747:0 748:0 749:4 750:0 751:0 752:0 753:0 754:0 755:0 756:0 757:0 758:0 759:0 760:0 761:0 762:0 763:0 764:0 765:0 766:0 767:0 768:0 769:0 770:0 771:0 772:0 773:0 774:1 775:0 776:0 777:0 778:1 779:0 780:0 781:0 782:0 783:0 784:0 785:0 786:0 787:0 788:0 789:1 790:0 791:0 792:0 793:0 794:2 795:0 796:0 797:0 798:0 799:0 800:0 
1.689929153441799 0.06146073652196381 3.030362925287467 4.16858171026267 1.937160199034681 3.641450344919888 1:5 2:3 3:0 4:0 5:6 6:2 7:0 8:0 9:0 10:1 11:2 12:0 13:1 14:0 15:7 16:2 17:0 18:3 19:0 20:0 21:0 22:0 23:0 24:0 25:0 26:3 27:1 28:6 29:0 30:1 31:0 32:0 33:0 34:0 35:0 36:0 37:4 38:1 39:0 40:0 41:2 42:0 43:1 44:0 45:1 46:0 47:0 48:1 49:0 50:0 51:1 52:0 53:0 54:2 55:0 56:0 57:0 58:0 59:0 60:0 61:0 62:2 63:4 64:0 65:0 66:0 67:0 68:0 69:0 70:1 71:0 72:0 73:3 74:1 75:0 76:0 77:0 78:3 79:1 80:0 81:0 82:0 83:0 84:0 85:0 86:0 87:0 88:0 89:2 90:1 91:1 92:0 93:0 94:2 95:0 96:1 97:0 98:0 99:8 100:0 101:1 102:0 103:0 104:3 105:1 106:2 107:0 108:1 109:0 110:0 111:0 112:0 113:0 114:0 115:0 116:1 117:1 118:0 119:0 120:2 121:0 122:0 123:0 124:1 125:1 126:1 127:2 128:3 129:1 130:0 131:0 132:1 133:0 134:0 135:0 136:2 137:0 138:0 139:1 140:0 141:1 142:0 143:1 144:0 145:1 146:0 147:0 148:0 149:0 150:1 151:0 152:0 153:1 154:0 155:0 156:0 157:1 158:0 159:6 160:0 161:0 162:0 163:0 164:2 165:0 166:0 167:1 168:0 169:0 170:0 171:1 172:0 173:1 174:3 175:0 176:0 177:2 178:0 179:2 180:0 181:0 182:0 183:0 184:2 185:0 186:0 187:0 188:0 189:1 190:0 191:1 192:4 193:0 194:4 195:1 196:0 197:0 198:0 199:0 200:1 201:0 202:0 203:6 204:0 205:1 206:2 207:0 208:0 209:0 210:0 211:1 212:0 213:0 214:0 215:0 216:0 217:0 218:0 219:0 220:1 221:0 222:0 223:0 224:1 225:0 226:0 227:1 228:1 229:0 230:0 231:0 232:1 233:0 234:0 235:1 236:2 237:0 238:0 239:0 240:0 241:0 242:2 243:0 244:0 245:0 246:0 247:0 248:0 249:1 250:0 251:0 252:0 253:0 254:0 255:2 256:0 257:0 258:2 259:0 260:0 261:0 262:0 263:0 264:1 265:1 266:0 267:0 268:0 269:0 270:1 271:0 272:2 273:0 274:0 275:0 276:0 277:0 278:0 279:1 280:2 281:1 282:1 283:0 284:1 285:2 286:0 287:0 288:0 289:1 290:0 291:0 292:0 293:0 294:0 295:0 296:1 297:6 298:3 299:0 300:0 301:1 302:0 303:0 304:0 305:3 306:0 307:0 308:0 309:0 310:0 311:0 312:0 313:0 314:0 315:0 316:0 317:0 318:0 319:0 320:0 321:1 322:1 323:0 324:0 325:0 326:5 327:0 328:0 329:0 330:0 331:0 332:0 333:1 334:0 335:0 336:5 337:0 338:0 339:1 340:0 341:0 342:0 343:0 344:0 345:2 346:0 347:0 348:0 349:0 350:0 351:0 352:0 353:0 354:0 355:0 356:1 357:1 358:0 359:0 360:0 361:1 362:0 363:0 364:0 365:1 366:0 367:2 368:1 369:1 370:0 371:0 372:0 373:0 374:0 375:0 376:0 377:0 378:8 379:0 380:0 381:0 382:8 383:0 384:0 385:0 386:0 387:0 388:0 389:0 390:1 391:0 392:0 393:0 394:0 395:0 396:0 397:0 398:0 399:0 400:0 401:0 402:0 403:0 404:0 405:0 406:0 407:0 408:0 409:0 410:0 411:0 412:0 413:0 414:0 415:0 416:0 417:0 418:1 419:0 420:0 421:3 422:2 423:0 424:0 425:0 426:0 427:2 428:0 429:0 430:0 431:0 432:0 433:0 434:0 435:3 436:0 437:0 438:0 439:0 440:0 441:0 442:0 443:0 444:0 445:0 446:0 447:2 448:0 449:1 450:0 451:0 452:0 453:0 454:1 455:0 456:0 457:0 458:0 459:0 460:0 461:0 462:0 463:0 464:0 465:0 466:0 467:2 468:1 469:0 470:0 471:1 472:0 473:0 474:0 475:0 476:0 477:0 478:0 479:0 480:0 481:0 482:0 483:0 484:0 485:0 486:0 487:0 488:0 489:1 490:2 491:0 492:0 493:0 494:0 495:0 496:0 497:0 498:0 499:0 500:0 501:0 502:0 503:2 504:2 505:0 506:0 507:0 508:0 509:0 510:0 511:0 512:0 513:0 514:0 515:0 516:0 517:0 518:0 519:0 520:0 521:0 522:0 523:0 524:0 525:0 526:0 527:0 528:0 529:0 530:0 531:3 532:0 533:0 534:1 535:0 536:0 537:2 538:0 539:0 540:0 541:0 542:0 543:0 544:0 545:0 546:0 547:0 548:0 549:0 550:0 551:0 552:0 553:1 554:1 555:4 556:0 557:0 558:1 559:0 560:0 561:0 562:0 563:0 564:1 565:0 566:0 567:0 568:0 569:0 570:0 571:0 572:0 573:0 574:0 575:0 576:0 577:0 578:0 579:0 580:0 581:0 582:0 583:0 584:0 585:0 586:0 587:0 588:0 589:0 590:0 591:0 592:0 593:0 594:0 595:1 596:0 597:0 598:0 599:0 600:0 601:0 602:0 603:0 604:0 605:0 606:0 607:0 608:0 609:1 610:0 611:0 612:1 613:0 614:0 615:0 616:0 617:1 618:0 619:0 620:0 621:0 622:0 623:0 624:0 625:0 626:0 627:1 628:0 629:0 630:0 631:0 632:0 633:0 634:0 635:1 636:0 637:2 638:2 639:0 640:0 641:0 642:0 643:0 644:0 645:0 646:0 647:0 648:0 649:0 650:2 651:0 652:0 653:0 654:0 655:3 656:1 657:0 658:0 659:0 660:0 661:0 662:0 663:0 664:0 665:0 666:0 667:0 668:0 669:0 670:0 671:1 672:0 673:0 674:0 675:0 676:0 677:0 678:3 679:0 680:0 681:0 682:0 683:0 684:0 685:0 686:0 687:0 688:0 689:0 690:4 691:0 692:0 693:0 694:2 695:2 696:0 697:0 698:0 699:0 700:0 701:0 702:0 703:0 704:0 705:0 706:0 707:0 708:0 709:0 710:0 711:1 712:0 713:0 714:0 715:0 716:0 717:0 718:0 719:0 720:0 721:0 722:2 723:0 724:0 725:0 726:0 727:0 728:1 729:0 730:0 731:0 732:0 733:0 734:0 735:0 736:1 737:0 738:0 739:0 740:0 741:0 742:0 743:0 744:0 745:0 746:0 747:0 748:0 749:0 750:0 751:0 752:0 753:0 754:4 755:2 756:0 757:0 758:0 759:0 760:0 761:1 762:0 763:0 764:0 765:0 766:0 767:0 768:0 769:0 770:0 771:0 772:0 773:0 774:0 775:1 776:0 777:0 778:0 779:0 780:0 781:0 782:0 783:0 784:0 785:0 786:0 787:0 788:0 789:0 790:0 791:0 792:0 793:0 794:0 795:0 796:0 797:0 798:0 799:1 800:0 
0.2883061560290408 1.222330281139787 1.029611347310465 1.281213431103822 0.7966429750929166 1.400743592598684 1:16 2:2 3:2 4:2 5:4 6:0 7:0 8:1 9:1 10:5 11:4 12:3 13:2 14:0 15:5 16:0 17:1 18:1 19:1 20:2 21:0 22:0 23:1 24:4 25:0 26:1 27:1 28:1 29:0 30:1 31:2 32:0 33:1 34:5 35:0 36:1 37:0 38:0 39:1 40:0 41:0 42:1 43:0 44:0 45:0 46:1 47:0 48:0 49:1 50:0 51:1 52:0 53:0 54:4 55:0 56:0 57:1 58:0 59:5 60:0 61:4 62:8 63:0 64:1 65:0 66:0 67:0 68:0 69:2 70:0 71:2 72:0 73:0 74:0 75:0 76:1 77:0 78:0 79:0 80:0 81:0 82:0 83:0 84:1 85:0 86:6 87:1 88:1 89:0 90:0 91:0 92:1 93:0 94:0 95:0 96:2 97:0 98:0 99:0 100:0 101:2 102:3 103:1 104:3 105:0 106:3 107:0 108:0 109:5 110:0 111:0 112:0 113:1 114:0 115:0 116:0 117:0 118:0 119:0 120:1 121:1 122:0 123:0 124:2 125:0 126:0 127:1 128:0 129:0 130:0 131:0 132:0 133:2 134:0 135:0 136:0 137:1 138:0 139:0 140:2 141:0 142:0 143:0 144:0 145:4 146:0 147:0 148:0 149:0 150:0 151:0 152:2 153:7 154:4 155:0 156:0 157:1 158:3 159:0 160:0 161:1 162:0 163:0 164:0 165:1 166:0 167:0 168:0 169:10 170:1 171:0 172:1 173:2 174:0 175:0 176:0 177:0 178:0 179:0 180:1 181:0 182:0 183:0 184:0 185:0 186:0 187:0 188:0 189:0 190:0 191:0 192:5 193:0 194:0 195:2 196:0 197:0 198:0 199:0 200:0 201:1 202:0 203:3 204:0 205:2 206:0 207:0 208:4 209:1 210:1 211:8 212:0 213:0 214:0 215:0 216:1 217:1 218:0 219:0 220:0 221:0 222:0 223:0 224:0 225:0 226:0 227:0 228:0 229:0 230:0 231:0 232:0 233:0 234:0 235:0 236:0 237:0 238:0 239:0 240:0 241:0 242:3 243:0 244:0 245:0 246:0 247:2 248:0 249:0 250:1 251:0 252:3 253:0 254:0 255:0 256:0 257:0 258:1 259:0 260:1 261:0 262:3 263:7 264:0 265:0 266:0 267:1 268:0 269:0 270:3 271:4 272:0 273:0 274:0 275:0 276:0 277:0 278:0 279:0 280:0 281:0 282:0 283:0 284:2 285:0 286:0 287:0 288:0 289:0 290:0 291:1 292:0 293:0 294:0 295:0 296:0 297:3 298:0 299:0 300:0 301:0 302:0 303:0 304:0 305:0 306:0 307:0 308:0 309:0 310:0 311:0 312:0 313:0 314:0 315:0 316:1 317:2 318:0 319:0 320:1 321:0 322:0 323:5 324:0 325:0 326:0 327:0 328:0 329:0 330:0 331:1 332:0 333:0 334:0 335:0 336:1 337:0 338:0 339:1 340:1 341:0 342:0 343:1 344:0 345:0 346:0 347:4 348:0 349:0 350:0 351:0 352:0 353:0 354:0 355:0 356:2 357:0 358:0 359:0 360:0 361:0 362:0 363:0 364:0 365:0 366:0 367:3 368:2 369:0 370:0 371:0 372:0 373:0 374:0 375:0 376:1 377:0 378:17 379:4 380:0 381:0 382:0 383:0 384:0 385:0 386:0 387:0 388:0 389:0 390:0 391:0 392:0 393:0 394:0 395:6 396:2 397:1 398:0 399:0 400:0 401:0 402:3 403:0 404:4 405:0 406:0 407:1 408:0 409:0 410:0 411:0 412:0 413:1 414:0 415:0 416:0 417:0 418:0 419:0 420:0 421:0 422:0 423:0 424:0 425:0 426:0 427:0 428:0 429:0 430:0 431:0 432:0 433:0 434:0 435:0 436:0 437:1 438:0 439:0 440:0 441:0 442:0 443:0 444:3 445:0 446:0 447:0 448:0 449:0 450:1 451:1 452:0 453:0 454:0 455:0 456:0 457:0 458:0 459:0 460:0 461:1 462:0 463:0 464:0 465:0 466:0 467:0 468:0 469:0 470:0 471:0 472:0 473:0 474:2 475:0 476:0 477:0 478:0 479:0 480:4 481:0 482:0 483:0 484:0 485:0 486:0 487:0 488:0 489:0 490:0 491:0 492:0 493:0 494:0 495:0 496:0 497:1 498:0 499:0 500:0 501:0 502:0 503:0 504:0 505:0 506:0 507:0 508:0 509:0 510:0 511:0 512:0 513:0 514:0 515:0 516:1 517:0 518:0 519:0 520:0 521:0 522:0 523:0 524:0 525:0 526:0 527:0 528:0 529:0 530:0 531:0 532:0 533:1 534:9 535:0 536:0 537:1 538:0 539:0 540:0 541:0 542:0 543:0 544:0 545:0 546:0 547:0 548:0 549:0 550:0 551:2 552:0 553:0 554:0 555:0 556:0 557:1 558:0 559:0 560:0 561:0 562:0 563:0 564:0 565:0 566:0 567:0 568:0 569:0 570:0 571:0 572:0 573:0 574:0 575:0 576:8 577:1 578:0 579:0 580:0 581:0 582:0 583:0 584:0 585:0 586:0 587:1 588:0 589:0 590:0 591:0 592:0 593:0 594:1 595:0 596:0 597:0 598:0 599:0 600:0 601:0 602:0 603:0 604:0 605:0 606:0 607:0 608:0 609:0 610:0 611:0 612:0 613:1 614:0 615:0 616:0 617:0 618:0 619:2 620:0 621:0 622:0 623:0 624:0 625:0 626:0 627:0 628:0 629:0 630:0 631:0 632:0 633:1 634:0 635:0 636:0 637:0 638:0 639:0 640:0 641:0 642:0 643:0 644:2 645:0 646:0 647:0 648:0 649:0 650:0 651:0 652:0 653:0 654:0 655:2 656:0 657:1 658:0 659:0 660:0 661:0 662:0 663:0 664:0 665:0 666:0 667:0 668:0 669:0 670:0 671:0 672:0 673:0 674:0 675:1 676:0 677:0 678:0 679:0 680:0 681:0 682:0 683:0 684:1 685:0 686:0 687:0 688:0 689:1 690:0 691:0 692:0 693:0 694:0 695:0 696:1 697:0 698:0 699:0 700:0 701:0 702:0 703:0 704:0 705:0 706:0 707:0 708:0 709:0 710:0 711:0 712:0 713:0 714:0 715:0 716:0 717:0 718:0 719:0 720:0 721:0 722:0 723:0 724:0 725:0 726:0 727:0 728:0 729:0 730:0 731:0 732:0 733:0 734:0 735:5 736:0 737:0 738:0 739:0 740:0 741:0 742:0 743:0 744:0 745:0 746:0 747:1 748:0 749:0 750:0 751:0 752:0 753:0 754:0 755:0 756:0 757:0 758:0 759:0 760:0 761:0 762:0 763:0 764:0 765:0 766:0 767:0 768:0 769:0 770:0 771:0 772:0 773:0 774:0 775:0 776:0 777:3 778:1 779:0 780:0 781:0 782:1 783:0 784:0 785:0 786:0 787:0 788:0 789:0 790:0 791:0 792:0 793:0 794:0 795:0 796:0 797:0 798:0 799:0 800:0 
1.559597224455058 0.567742021330907 2.736855600691516 6.450900775027293 1.100056188729017 4.667833444084732 1:4 2:0 3:1 4:2 5:0 6:4 7:4 8:2 9:0 10:1 11:1 12:0 13:1 14:2 15:2 16:0 17:1 18:0 19:0 20:1 21:0 22:0 23:3 24:0 25:0 26:10 27:0 28:1 29:0 30:0 31:0 32:0 33:0 34:2 35:0 36:0 37:0 38:0 39:0 40:1 41:0 42:0 43:7 44:0 45:0 46:1 47:0 48:0 49:0 50:0 51:0 52:0 53:0 54:0 55:1 56:0 57:1 58:1 59:1 60:0 61:1 62:0 63:2 64:0 65:0 66:0 67:0 68:0 69:0 70:0 71:0 72:0 73:1 74:1 75:0 76:1 77:5 78:0 79:0 80:0 81:0 82:0 83:0 84:0 85:0 86:0 87:0 88:0 89:0 90:0 91:0 92:0 93:0 94:0 95:0 96:1 97:0 98:1 99:0 100:2 101:0 102:1 103:0 104:0 105:1 106:0 107:0 108:0 109:1 110:0 111:0 112:0 113:0 114:1 115:1 116:1 117:0 118:0 119:0 120:0 121:0 122:0 123:1 124:0 125:0 126:8 127:1 128:0 129:0 130:0 131:1 132:0 133:3 134:1 135:0 136:2 137:0 138:0 139:0 140:1 141:0 142:0 143:0 144:1 145:0 146:0 147:0 148:0 149:0 150:0 151:0 152:0 153:0 154:0 155:0 156:0 157:0 158:0 159:0 160:0 161:0 162:0 163:0 164:0 165:0 166:0 167:0 168:0 169:0 170:0 171:0 172:0 173:1 174:0 175:0 176:0 177:0 178:0 179:0 180:0 181:0 182:0 183:0 184:0 185:0 186:0 187:1 188:1 189:0 190:0 191:0 192:0 193:2 194:9 195:0 196:0 197:2 198:0 199:2 200:0 201:1 202:0 203:0 204:0 205:0 206:2 207:0 208:1 209:0 210:0 211:3 212:0 213:0 214:0 215:0 216:0 217:0 218:0 219:0 220:1 221:1 222:0 223:0 224:0 225:2 226:0 227:1 228:0 229:2 230:0 231:0 232:0 233:0 234:0 235:0 236:0 237:0 238:5 239:0 240:0 241:0 242:0 243:0 244:1 245:0 246:1 247:0 248:0 249:0 250:0 251:0 252:0 253:0 254:0 255:0 256:0 257:0 258:0 259:0 260:1 261:0 262:0 263:0 264:0 265:0 266:0 267:0 268:0 269:0 270:5 271:1 272:0 273:0 274:0 275:0 276:0 277:0 278:0 279:1 280:1 281:0 282:1 283:0 284:0 285:0 286:0 287:0 288:4 289:1 290:0 291:0 292:2 293:0 294:0 295:0 296:0 297:0 298:1 299:0 300:0 301:0 302:0 303:0 304:0 305:0 306:3 307:0 308:0 309:0 310:0 311:0 312:0 313:0 314:0 315:0 316:0 317:0 318:1 319:0 320:0 321:1 322:0 323:0 324:0 325:0 326:0 327:0 328:0 329:2 330:0 331:0 332:0 333:0 334:0 335:0 336:2 337:1 338:0 339:1 340:0 341:0 342:0 343:0 344:0 345:0 346:1 347:0 348:0 349:0 350:0 351:0 352:0 353:0 354:0 355:0 356:0 357:0 358:1 359:0 360:0 361:0 362:0 363:0 364:0 365:0 366:0 367:0 368:1 369:0 370:0 371:0 372:0 373:0 374:0 375:0 376:1 377:0 378:3 379:0 380:1 381:1 382:0 383:0 384:1 385:0 386:0 387:0 388:0 389:1 390:0 391:0 392:0 393:0 394:0 395:0 396:0 397:0 398:0 399:1 400:0 401:0 402:0 403:0 404:0 405:0 406:0 407:0 408:0 409:1 410:0 411:0 412:0 413:0 414:0 415:0 416:0 417:0 418:0 419:0 420:0 421:0 422:0 423:0 424:5 425:1 426:4 427:0 428:0 429:0 430:1 431:0 432:0 433:0 434:0 435:0 436:0 437:0 438:0 439:0 440:0 441:4 442:0 443:0 444:0 445:0 446:0 447:0 448:0 449:0 450:0 451:0 452:0 453:0 454:0 455:0 456:0 457:0 458:0 459:0 460:0 461:0 462:0 463:0 464:0 465:0 466:0 467:0 468:0 469:0 470:0 471:0 472:1 473:0 474:0 475:0 476:1 477:0 478:0 479:0 480:0 481:0 482:0 483:0 484:0 485:0 486:0 487:0 488:0 489:0 490:0 491:0 492:0 493:0 494:0 495:0 496:0 497:0 498:0 499:0 500:0 501:0 502:0 503:0 504:0 505:0 506:0 507:0 508:2 509:1 510:0 511:0 512:0 513:0 514:0 515:0 516:0 517:0 518:0 519:0 520:0 521:0 522:0 523:0 524:0 525:0 526:0 527:0 528:0 529:0 530:0 531:0 532:0 533:1 534:0 535:0 536:0 537:0 538:0 539:0 540:0 541:0 542:0 543:0 544:0 545:0 546:0 547:0 548:0 549:0 550:0 551:0 552:0 553:0 554:0 555:0 556:0 557:0 558:0 559:0 560:0 561:0 562:0 563:0 564:0 565:0 566:0 567:0 568:0 569:0 570:0 571:0 572:0 573:0 574:0 575:0 576:0 577:0 578:0 579:0 580:1 581:0 582:0 583:0 584:0 585:0 586:0 587:0 588:0 589:0 590:0 591:0 592:0 593:0 594:0 595:0 596:0 597:0 598:1 599:0 600:0 601:0 602:0 603:0 604:0 605:0 606:0 607:0 608:0 609:0 610:0 611:0 612:3 613:0 614:0 615:0 616:0 617:0 618:0 619:6 620:0 621:0 622:0 623:0 624:0 625:0 626:0 627:0 628:0 629:0 630:0 631:0 632:0 633:0 634:0 635:0 636:0 637:0 638:0 639:0 640:1 641:0 642:0 643:0 644:0 645:0 646:0 647:0 648:0 649:0 650:0 651:0 652:0 653:0 654:0 655:0 656:0 657:0 658:0 659:0 660:0 661:0 662:0 663:0 664:3 665:0 666:0 667:0 668:0 669:0 670:0 671:0 672:0 673:0 674:0 675:0 676:0 677:0 678:0 679:0 680:0 681:0 682:0 683:0 684:0 685:0 686:0 687:1 688:0 689:0 690:0 691:0 692:0 693:0 694:0 695:0 696:0 697:0 698:0 699:0 700:0 701:0 702:0 703:0 704:0 705:0 706:0 707:0 708:0 709:0 710:0 711:0 712:0 713:0 714:0 715:0 716:0 717:0 718:0 719:0 720:0 721:0 722:0 723:0 724:0 725:0 726:0 727:0 728:0 729:0 730:0 731:0 732:0 733:3 734:0 735:0 736:0 737:0 738:0 739:0 740:0 741:0 742:0 743:0 744:0 745:0 746:0 747:0 748:0 749:0 750:0 751:0 752:0 753:0 754:6 755:0 756:0 757:0 758:0 759:0 760:0 761:0 762:0 763:0 764:0 765:0 766:0 767:0 768:0 769:0 770:0 771:0 772:0 773:0 774:0 775:0 776:0 777:0 778:0 779:0 780:0 781:0 782:0 783:0 784:0 785:0 786:0 787:0 788:0 789:0 790:0 791:0 792:0 793:0 794:0 795:0 796:0 797:0 798:0 799:0 800:0 
0.8345297756204304 0 0.6232827030866547 2.251198435843098 0 4.740524666956278 1:6 2:3 3:0 4:1 5:1 6:0 7:1 8:0 9:0 10:0 11:1 12:1 13:7 14:0 15:0 16:0 17:1 18:3 19:0 20:0 21:2 22:0 23:0 24:0 25:0 26:5 27:1 28:0 29:0 30:0 31:0 32:0 33:0 34:2 35:0 36:0 37:2 38:1 39:0 40:1 41:0 42:0 43:0 44:1 45:0 46:2 47:0 48:0 49:1 50:0 51:0 52:0 53:2 54:0 55:0 56:1 57:0 58:0 59:0 60:0 61:0 62:2 63:1 64:0 65:0 66:2 67:0 68:0 69:0 70:0 71:0 72:0 73:0 74:0 75:0 76:0 77:0 78:0 79:0 80:0 81:0 82:0 83:0 84:0 85:0 86:0 87:0 88:0 89:0 90:0 91:0 92:0 93:1 94:1 95:0 96:0 97:0 98:0 99:0 100:0 101:0 102:0 103:0 104:2 105:0 106:0 107:0 108:0 109:2 110:0 111:0 112:0 113:2 114:0 115:0 116:0 117:0 118:0 119:0 120:0 121:0 122:0 123:0 124:0 125:0 126:0 127:0 128:0 129:0 130:0 131:0 132:0 133:1 134:5 135:1 136:1 137:0 138:0 139:0 140:0 141:0 142:0 143:0 144:0 145:0 146:0 147:0 148:0 149:2 150:0 151:0 152:0 153:0 154:1 155:0 156:0 157:2 158:0 159:0 160:0 161:0 162:0 163:0 164:1 165:1 166:0 167:0 168:0 169:7 170:0 171:0 172:1 173:0 174:1 175:0 176:0 177:0 178:0 179:0 180:0 181:0 182:0 183:0 184:0 185:0 186:1 187:1 188:0 189:0 190:0 191:0 192:2 193:0 194:1 195:0 196:0 197:1 198:0 199:0 200:0 201:1 202:0 203:4 204:0 205:0 206:0 207:0 208:0 209:0 210:0 211:0 212:0 213:0 214:0 215:0 216:3 217:0 218:0 219:0 220:0 221:0 222:0 223:0 224:0 225:0 226:0 227:0 228:0 229:0 230:0 231:0 232:0 233:0 234:0 235:0 236:0 237:0 238:0 239:0 240:0 241:0 242:1 243:0 244:0 245:0 246:0 247:2 248:0 249:0 250:0 251:0 252:0 253:1 254:0 255:0 256:0 257:0 258:0 259:0 260:2 261:0 262:2 263:0 264:0 265:0 266:0 267:0 268:0 269:1 270:8 271:6 272:0 273:0 274:0 275:0 276:0 277:0 278:2 279:0 280:0 281:1 282:1 283:0 284:0 285:2 286:0 287:0 288:0 289:0 290:0 291:1 292:0 293:0 294:0 295:0 296:0 297:2 298:1 299:0 300:0 301:0 302:0 303:0 304:0 305:0 306:0 307:0 308:0 309:0 310:0 311:0 312:0 313:0 314:0 315:0 316:0 317:1 318:0 319:0 320:2 321:0 322:0 323:0 324:0 325:0 326:0 327:0 328:0 329:6 330:0 331:0 332:0 333:0 334:0 335:0 336:3 337:0 338:1 339:1 340:0 341:0 342:2 343:0 344:0 345:0 346:0 347:0 348:0 349:0 350:0 351:0 352:0 353:0 354:0 355:0 356:0 357:0 358:2 359:0 360:0 361:0 362:0 363:0 364:0 365:0 366:0 367:1 368:0 369:0 370:0 371:0 372:1 373:0 374:0 375:0 376:1 377:0 378:7 379:0 380:0 381:0 382:0 383:0 384:0 385:0 386:0 387:0 388:0 389:0 390:0 391:0 392:0 393:1 394:0 395:2 396:0 397:2 398:0 399:0 400:0 401:0 402:0 403:0 404:0 405:0 406:0 407:0 408:0 409:0 410:0 411:0 412:0 413:0 414:0 415:0 416:0 417:0 418:0 419:0 420:0 421:0 422:0 423:0 424:0 425:0 426:0 427:0 428:0 429:0 430:0 431:0 432:0 433:0 434:0 435:0 436:0 437:0 438:0 439:0 440:0 441:0 442:0 443:0 444:0 445:0 446:0 447:0 448:0 449:0 450:0 451:0 452:0 453:0 454:1 455:0 456:0 457:0 458:0 459:0 460:0 461:1 462:0 463:0 464:0 465:0 466:0 467:0 468:0 469:0 470:0 471:0 472:0 473:0 474:0 475:0 476:0 477:1 478:0 479:0 480:0 481:0 482:0 483:0 484:0 485:0 486:0 487:0 488:0 489:0 490:0 491:0 492:0 493:1 494:0 495:0 496:0 497:0 498:0 499:0 500:0 501:0 502:5 503:0 504:0 505:0 506:0 507:0 508:1 509:0 510:0 511:0 512:0 513:0 514:0 515:0 516:0 517:0 518:0 519:0 520:0 521:0 522:0 523:0 524:0 525:0 526:0 527:0 528:0 529:0 530:0 531:0 532:0 533:0 534:1 535:0 536:0 537:0 538:0 539:0 540:0 541:0 542:0 543:0 544:0 545:0 546:0 547:0 548:0 549:0 550:0 551:0 552:0 553:0 554:0 555:0 556:0 557:1 558:0 559:0 560:0 561:0 562:0 563:1 564:0 565:0 566:0 567:0 568:0 569:0 570:0 571:0 572:2 573:0 574:0 575:0 576:2 577:0 578:0 579:0 580:0 581:1 582:1 583:0 584:0 585:0 586:0 587:0 588:0 589:0 590:0 591:0 592:0 593:0 594:0 595:0 596:0 597:0 598:0 599:0 600:0 601:0 602:0 603:0 604:0 605:0 606:0 607:0 608:0 609:0 610:1 611:0 612:0 613:0 614:0 615:0 616:0 617:0 618:0 619:1 620:0 621:0 622:0 623:0 624:0 625:0 626:0 627:0 628:0 629:0 630:0 631:0 632:0 633:0 634:0 635:0 636:0 637:1 638:0 639:0 640:0 641:0 642:0 643:0 644:0 645:0 646:0 647:0 648:0 649:0 650:0 651:0 652:0 653:0 654:0 655:0 656:0 657:0 658:0 659:0 660:0 661:0 662:0 663:0 664:0 665:0 666:0 667:0 668:0 669:0 670:0 671:0 672:0 673:0 674:0 675:0 676:0 677:0 678:0 679:0 680:0 681:0 682:0 683:0 684:0 685:0 686:0 687:0 688:0 689:3 690:1 691:0 692:2 693:0 694:0 695:0 696:0 697:0 698:0 699:0 700:0 701:0 702:0 703:0 704:0 705:0 706:0 707:0 708:0 709:0 710:0 711:0 712:0 713:0 714:0 715:0 716:0 717:0 718:0 719:0 720:0 721:0 722:0 723:0 724:0 725:0 726:0 727:0 728:0 729:0 730:0 731:0 732:0 733:0 734:0 735:1 736:0 737:0 738:0 739:0 740:0 741:0 742:0 743:0 744:0 745:0 746:1 747:0 748:0 749:0 750:0 751:0 752:0 753:0 754:1 755:0 756:0 757:0 758:0 759:0 760:0 761:0 762:0 763:0 764:0 765:0 766:0 767:0 768:0 769:0 770:0 771:0 772:0 773:0 774:0 775:0 776:0 777:1 778:0 779:0 780:0 781:0 782:0 783:0 784:0 785:0 786:0 787:0 788:0 789:0 790:0 791:0 792:0 793:0 794:0 795:0 796:0 797:0 798:1 799:0 800:0 
0.9193288510140136 0 1.983872404199604 0 0.9016035164442497 2.113151689426714 1:4 2:1 3:0 4:0 5:0 6:0 7:1 8:16 9:0 10:3 11:0 12:0 13:7 14:0 15:0 16:0 17:3 18:1 19:0 20:8 21:3 22:0 23:0 24:2 25:0 26:4 27:1 28:0 29:0 30:0 31:0 32:0 33:0 34:4 35:0 36:3 37:4 38:0 39:0 40:2 41:0 42:0 43:1 44:0 45:0 46:2 47:0 48:0 49:1 50:0 51:0 52:0 53:0 54:0 55:0 56:0 57:2 58:1 59:1 60:0 61:2 62:4 63:6 64:0 65:0 66:0 67:0 68:0 69:0 70:0 71:0 72:0 73:4 74:4 75:3 76:2 77:5 78:0 79:2 80:0 81:0 82:0 83:0 84:2 85:0 86:0 87:0 88:0 89:0 90:0 91:0 92:0 93:4 94:0 95:0 96:9 97:0 98:0 99:0 100:0 101:0 102:0 103:0 104:2 105:0 106:0 107:0 108:0 109:0 110:0 111:0 112:0 113:1 114:0 115:1 116:0 117:0 118:0 119:0 120:0 121:1 122:0 123:0 124:2 125:0 126:3 127:0 128:0 129:0 130:0 131:0 132:4 133:0 134:0 135:0 136:0 137:0 138:0 139:0 140:3 141:0 142:3 143:0 144:0 145:1 146:0 147:0 148:0 149:0 150:0 151:3 152:0 153:0 154:1 155:0 156:0 157:0 158:2 159:0 160:0 161:0 162:0 163:0 164:0 165:0 166:1 167:0 168:0 169:1 170:0 171:0 172:0 173:0 174:2 175:0 176:0 177:3 178:0 179:0 180:0 181:0 182:2 183:0 184:0 185:1 186:0 187:0 188:0 189:0 190:1 191:0 192:0 193:3 194:0 195:0 196:0 197:0 198:0 199:0 200:0 201:0 202:0 203:0 204:0 205:0 206:0 207:1 208:0 209:0 210:0 211:0 212:0 213:0 214:0 215:0 216:0 217:0 218:0 219:0 220:0 221:0 222:1 223:0 224:0 225:7 226:1 227:0 228:0 229:5 230:0 231:0 232:0 233:0 234:0 235:0 236:0 237:0 238:0 239:0 240:0 241:0 242:4 243:0 244:2 245:0 246:0 247:0 248:0 249:7 250:0 251:2 252:0 253:0 254:0 255:0 256:0 257:0 258:0 259:0 260:0 261:0 262:0 263:0 264:0 265:3 266:0 267:0 268:0 269:5 270:4 271:1 272:0 273:0 274:0 275:0 276:0 277:0 278:2 279:0 280:0 281:1 282:0 283:0 284:1 285:0 286:1 287:0 288:3 289:0 290:0 291:0 292:0 293:0 294:0 295:0 296:0 297:0 298:0 299:0 300:0 301:0 302:0 303:0 304:0 305:0 306:0 307:0 308:0 309:0 310:0 311:0 312:0 313:0 314:0 315:0 316:0 317:0 318:0 319:0 320:0 321:0 322:2 323:0 324:0 325:0 326:2 327:0 328:0 329:0 330:0 331:0 332:0 333:1 334:0 335:0 336:3 337:1 338:0 339:0 340:1 341:0 342:1 343:0 344:0 345:0 346:0 347:0 348:0 349:0 350:0 351:0 352:3 353:0 354:0 355:0 356:0 357:3 358:1 359:0 360:0 361:0 362:0 363:0 364:0 365:0 366:0 367:0 368:2 369:1 370:0 371:0 372:0 373:0 374:0 375:0 376:4 377:0 378:14 379:0 380:0 381:0 382:1 383:0 384:0 385:7 386:0 387:0 388:0 389:0 390:1 391:0 392:0 393:3 394:2 395:0 396:0 397:0 398:0 399:0 400:0 401:0 402:0 403:0 404:0 405:0 406:0 407:0 408:0 409:0 410:0 411:0 412:0 413:0 414:0 415:0 416:0 417:0 418:0 419:0 420:0 421:0 422:0 423:0 424:0 425:0 426:0 427:0 428:0 429:0 430:0 431:0 432:0 433:0 434:0 435:0 436:0 437:0 438:0 439:0 440:0 441:1 442:0 443:0 444:2 445:0 446:0 447:0 448:0 449:0 450:0 451:0 452:0 453:0 454:0 455:0 456:0 457:0 458:0 459:0 460:0 461:1 462:0 463:0 464:0 465:0 466:0 467:0 468:0 469:0 470:0 471:0 472:0 473:0 474:0 475:5 476:1 477:0 478:0 479:0 480:0 481:0 482:0 483:0 484:0 485:0 486:0 487:0 488:0 489:0 490:0 491:0 492:1 493:0 494:0 495:0 496:0 497:0 498:0 499:3 500:0 501:0 502:0 503:0 504:0 505:0 506:0 507:0 508:0 509:0 510:0 511:0 512:0 513:0 514:0 515:0 516:0 517:0 518:0 519:0 520:0 521:0 522:0 523:0 524:0 525:3 526:0 527:0 528:0 529:0 530:0 531:0 532:0 533:8 534:6 535:0 536:0 537:0 538:0 539:0 540:0 541:0 542:0 543:0 544:0 545:0 546:0 547:0 548:0 549:0 550:0 551:1 552:0 553:0 554:0 555:0 556:0 557:0 558:0 559:0 560:3 561:0 562:0 563:0 564:0 565:3 566:0 567:0 568:0 569:0 570:0 571:0 572:1 573:0 574:0 575:0 576:3 577:0 578:0 579:0 580:0 581:0 582:0 583:0 584:0 585:0 586:0 587:0 588:0 589:0 590:0 591:0 592:0 593:0 594:0 595:0 596:1 597:0 598:0 599:0 600:0 601:0 602:0 603:0 604:0 605:0 606:0 607:0 608:0 609:0 610:1 611:0 612:0 613:0 614:0 615:0 616:0 617:0 618:0 619:7 620:2 621:0 622:2 623:0 624:0 625:0 626:0 627:0 628:0 629:0 630:0 631:0 632:0 633:0 634:0 635:0 636:0 637:0 638:0 639:0 640:0 641:0 642:0 643:0 644:0 645:0 646:0 647:1 648:0 649:1 650:0 651:0 652:0 653:1 654:0 655:0 656:0 657:0 658:0 659:0 660:0 661:0 662:0 663:0 664:0 665:0 666:0 667:0 668:0 669:0 670:0 671:0 672:0 673:0 674:0 675:0 676:0 677:0 678:0 679:0 680:0 681:0 682:0 683:0 684:0 685:0 686:0 687:0 688:0 689:0 690:0 691:0 692:0 693:0 694:0 695:2 696:0 697:0 698:0 699:0 700:0 701:0 702:0 703:0 704:0 705:0 706:0 707:0 708:0 709:0 710:0 711:0 712:1 713:2 714:0 715:0 716:0 717:0 718:0 719:0 720:0 721:0 722:0 723:0 724:0 725:0 726:0 727:0 728:1 729:0 730:0 731:0 732:0 733:0 734:0 735:0 736:0 737:0 738:0 739:0 740:0 741:0 742:0 743:0 744:0 745:0 746:4 747:0 748:0 749:2 750:0 751:0 752:0 753:0 754:0 755:0 756:0 757:0 758:0 759:0 760:0 761:0 762:0 763:1 764:0 765:0 766:0 767:0 768:0 769:0 770:0 771:0 772:0 773:1 774:1 775:0 776:0 777:0 778:0 779:0 780:0 781:0 782:0 783:0 784:0 785:0 786:2 787:0 788:0 789:0 790:0 791:0 792:0 793:0 794:0 795:0 796:7 797:0 798:0 799:0 800:0 
0 0 0 0 0.4856775185896536 0 1:6 2:1 3:1 4:0 5:4 6:4 7:3 8:0 9:1 10:4 11:4 12:0 13:4 14:0 15:0 16:3 17:2 18:6 19:1 20:2 21:0 22:0 23:0 24:3 25:1 26:0 27:0 28:1 29:0 30:0 31:1 32:0 33:0 34:0 35:0 36:0 37:0 38:0 39:1 40:3 41:4 42:6 43:0 44:11 45:0 46:0 47:0 48:7 49:2 50:0 51:1 52:0 53:0 54:3 55:0 56:0 57:1 58:0 59:0 60:1 61:0 62:3 63:3 64:0 65:0 66:0 67:2 68:0 69:0 70:0 71:0 72:1 73:0 74:1 75:1 76:0 77:0 78:0 79:0 80:0 81:0 82:0 83:0 84:0 85:0 86:0 87:2 88:0 89:0 90:0 91:0 92:4 93:3 94:0 95:0 96:1 97:0 98:0 99:0 100:0 101:3 102:0 103:0 104:9 105:1 106:2 107:0 108:0 109:0 110:1 111:0 112:0 113:3 114:0 115:0 116:0 117:1 118:0 119:0 120:0 121:0 122:1 123:0 124:7 125:5 126:1 127:0 128:3 129:0 130:1 131:1 132:0 133:0 134:0 135:0 136:0 137:0 138:0 139:1 140:0 141:3 142:0 143:2 144:0 145:0 146:0 147:0 148:0 149:0 150:0 151:8 152:2 153:2 154:0 155:0 156:0 157:10 158:0 159:1 160:0 161:0 162:0 163:0 164:1 165:0 166:0 167:0 168:0 169:4 170:0 171:0 172:1 173:4 174:0 175:0 176:1 177:0 178:0 179:0 180:0 181:0 182:0 183:0 184:1 185:0 186:0 187:0 188:1 189:6 190:0 191:0 192:0 193:0 194:2 195:0 196:0 197:0 198:0 199:0 200:0 201:1 202:0 203:0 204:0 205:0 206:2 207:0 208:0 209:3 210:0 211:0 212:0 213:3 214:0 215:0 216:0 217:0 218:0 219:0 220:0 221:2 222:0 223:0 224:0 225:0 226:0 227:0 228:0 229:0 230:0 231:0 232:0 233:0 234:0 235:0 236:0 237:0 238:0 239:0 240:0 241:0 242:0 243:2 244:0 245:1 246:0 247:0 248:0 249:0 250:0 251:0 252:9 253:2 254:0 255:0 256:1 257:0 258:0 259:0 260:1 261:1 262:3 263:2 264:1 265:6 266:0 267:0 268:0 269:0 270:4 271:4 272:0 273:0 274:0 275:1 276:0 277:0 278:0 279:0 280:0 281:9 282:0 283:0 284:1 285:2 286:0 287:0 288:0 289:0 290:0 291:0 292:0 293:0 294:1 295:1 296:0 297:0 298:0 299:0 300:0 301:0 302:0 303:0 304:1 305:0 306:0 307:0 308:0 309:0 310:0 311:0 312:0 313:0 314:0 315:0 316:2 317:1 318:0 319:0 320:1 321:0 322:0 323:0 324:0 325:0 326:0 327:0 328:0 329:9 330:0 331:0 332:0 333:0 334:0 335:0 336:3 337:0 338:0 339:0 340:0 341:0 342:0 343:0 344:0 345:1 346:0 347:0 348:0 349:0 350:0 351:0 352:0 353:1 354:0 355:0 356:0 357:0 358:0 359:0 360:0 361:0 362:0 363:0 364:0 365:0 366:1 367:1 368:0 369:0 370:0 371:0 372:0 373:2 374:0 375:0 376:0 377:0 378:17 379:0 380:0 381:0 382:0 383:0 384:0 385:0 386:0 387:0 388:0 389:0 390:0 391:0 392:0 393:1 394:0 395:0 396:0 397:0 398:0 399:1 400:0 401:0 402:0 403:0 404:0 405:0 406:0 407:0 408:0 409:0 410:0 411:0 412:0 413:0 414:0 415:0 416:0 417:0 418:0 419:0 420:0 421:0 422:0 423:0 424:0 425:0 426:0 427:0 428:0 429:0 430:0 431:0 432:0 433:0 434:0 435:0 436:0 437:0 438:0 439:0 440:0 441:1 442:0 443:0 444:0 445:0 446:0 447:0 448:0 449:0 450:0 451:1 452:0 453:1 454:0 455:0 456:0 457:0 458:0 459:0 460:0 461:0 462:0 463:0 464:0 465:0 466:0 467:0 468:0 469:0 470:0 471:0 472:0 473:0 474:0 475:0 476:0 477:0 478:0 479:1 480:0 481:0 482:0 483:11 484:0 485:0 486:4 487:2 488:0 489:0 490:0 491:2 492:2 493:0 494:0 495:0 496:0 497:0 498:0 499:0 500:0 501:0 502:0 503:0 504:0 505:0 506:0 507:0 508:0 509:0 510:0 511:0 512:0 513:0 514:0 515:0 516:0 517:0 518:0 519:0 520:0 521:0 522:0 523:0 524:0 525:0 526:0 527:0 528:0 529:0 530:0 531:0 532:0 533:1 534:3 535:0 536:0 537:0 538:0 539:0 540:0 541:0 542:0 543:0 544:2 545:0 546:0 547:0 548:0 549:0 550:0 551:0 552:3 553:0 554:1 555:0 556:0 557:0 558:0 559:0 560:1 561:0 562:0 563:0 564:0 565:0 566:0 567:0 568:0 569:0 570:0 571:0 572:0 573:0 574:0 575:0 576:0 577:0 578:0 579:0 580:0 581:0 582:1 583:0 584:0 585:0 586:0 587:0 588:0 589:0 590:0 591:0 592:0 593:0 594:0 595:0 596:0 597:0 598:0 599:0 600:0 601:0 602:0 603:0 604:0 605:0 606:0 607:0 608:0 609:0 610:0 611:0 612:0 613:0 614:0 615:0 616:0 617:0 618:0 619:3 620:0 621:0 622:0 623:0 624:0 625:0 626:0 627:0 628:0 629:0 630:0 631:0 632:0 633:0 634:4 635:2 636:0 637:0 638:0 639:0 640:0 641:0 642:0 643:0 644:0 645:0 646:0 647:0 648:0 649:0 650:0 651:0 652:0 653:1 654:0 655:0 656:0 657:0 658:0 659:1 660:1 661:0 662:0 663:0 664:0 665:0 666:0 667:0 668:0 669:0 670:0 671:0 672:0 673:0 674:0 675:0 676:0 677:0 678:0 679:1 680:0 681:0 682:0 683:0 684:0 685:0 686:0 687:0 688:0 689:0 690:0 691:0 692:0 693:0 694:0 695:0 696:0 697:0 698:0 699:0 700:0 701:0 702:0 703:0 704:0 705:0 706:0 707:0 708:0 709:0 710:0 711:0 712:0 713:0 714:0 715:0 716:0 717:1 718:0 719:0 720:0 721:0 722:0 723:0 724:0 725:1 726:0 727:0 728:2 729:0 730:0 731:0 732:0 733:0 734:0 735:0 736:0 737:0 738:0 739:0 740:0 741:0 742:0 743:0 744:0 745:0 746:0 747:0 748:0 749:0 750:0 751:0 752:0 753:0 754:0 755:0 756:0 757:0 758:0 759:0 760:0 761:0 762:0 763:0 764:0 765:0 766:0 767:0 768:0 769:0 770:0 771:0 772:0 773:0 774:0 775:0 776:0 777:0 778:0 779:0 780:0 781:0 782:0 783:0 784:0 785:0 786:0 787:0 788:0 789:0 790:0 791:0 792:0 793:0 794:0 795:0 796:0 797:0 798:0 799:0 800:0 
0 0.455852049260836 0 0 0 0 1:10 2:2 3:3 4:1 5:3 6:5 7:2 8:0 9:0 10:3 11:3 12:0 13:2 14:0 15:0 16:3 17:0 18:5 19:0 20:0 21:0 22:0 23:1 24:2 25:12 26:1 27:1 28:0 29:0 30:0 31:0 32:0 33:0 34:0 35:1 36:0 37:0 38:0 39:1 40:1 41:0 42:6 43:1 44:11 45:0 46:0 47:1 48:8 49:1 50:0 51:1 52:0 53:0 54:1 55:0 56:0 57:1 58:1 59:1 60:0 61:2 62:2 63:5 64:0 65:0 66:0 67:0 68:0 69:0 70:1 71:0 72:0 73:0 74:0 75:0 76:1 77:0 78:1 79:0 80:0 81:0 82:9 83:0 84:0 85:0 86:0 87:0 88:0 89:0 90:0 91:4 92:2 93:0 94:0 95:0 96:0 97:0 98:0 99:0 100:0 101:1 102:0 103:0 104:15 105:0 106:1 107:0 108:0 109:1 110:2 111:0 112:0 113:1 114:0 115:0 116:0 117:1 118:1 119:0 120:0 121:4 122:2 123:0 124:9 125:0 126:1 127:1 128:1 129:0 130:1 131:1 132:0 133:0 134:0 135:0 136:0 137:0 138:1 139:0 140:0 141:0 142:0 143:2 144:0 145:0 146:0 147:0 148:1 149:0 150:0 151:0 152:2 153:0 154:0 155:0 156:0 157:7 158:0 159:0 160:0 161:0 162:0 163:0 164:0 165:0 166:0 167:0 168:0 169:2 170:2 171:0 172:0 173:7 174:0 175:0 176:0 177:0 178:0 179:0 180:1 181:1 182:0 183:0 184:2 185:0 186:0 187:0 188:2 189:3 190:0 191:0 192:1 193:2 194:5 195:0 196:0 197:0 198:0 199:0 200:0 201:0 202:0 203:0 204:0 205:0 206:2 207:0 208:0 209:1 210:0 211:0 212:0 213:0 214:0 215:0 216:1 217:1 218:0 219:0 220:0 221:0 222:0 223:0 224:0 225:0 226:0 227:0 228:0 229:0 230:0 231:0 232:0 233:0 234:0 235:0 236:1 237:0 238:0 239:0 240:0 241:0 242:0 243:4 244:0 245:0 246:0 247:0 248:0 249:0 250:0 251:0 252:3 253:0 254:0 255:0 256:2 257:0 258:0 259:0 260:0 261:0 262:2 263:0 264:0 265:7 266:0 267:0 268:0 269:0 270:4 271:8 272:0 273:1 274:0 275:0 276:0 277:0 278:0 279:0 280:0 281:4 282:0 283:0 284:0 285:0 286:0 287:0 288:0 289:0 290:0 291:1 292:0 293:0 294:0 295:0 296:0 297:0 298:0 299:0 300:0 301:0 302:0 303:0 304:0 305:0 306:0 307:0 308:1 309:0 310:0 311:0 312:0 313:0 314:1 315:0 316:2 317:1 318:0 319:1 320:0 321:0 322:0 323:0 324:0 325:0 326:1 327:0 328:0 329:13 330:0 331:0 332:0 333:0 334:0 335:0 336:1 337:0 338:0 339:0 340:4 341:0 342:0 343:0 344:0 345:0 346:0 347:3 348:0 349:0 350:0 351:0 352:0 353:0 354:0 355:0 356:0 357:2 358:0 359:0 360:0 361:0 362:0 363:0 364:0 365:0 366:4 367:0 368:2 369:0 370:0 371:0 372:0 373:1 374:0 375:0 376:0 377:0 378:19 379:0 380:0 381:0 382:0 383:0 384:0 385:0 386:1 387:1 388:0 389:0 390:0 391:0 392:0 393:0 394:0 395:0 396:0 397:0 398:0 399:0 400:0 401:0 402:0 403:0 404:0 405:0 406:0 407:0 408:0 409:0 410:0 411:0 412:0 413:0 414:0 415:0 416:1 417:0 418:0 419:0 420:0 421:0 422:0 423:3 424:0 425:0 426:0 427:0 428:0 429:0 430:0 431:0 432:0 433:0 434:0 435:0 436:0 437:0 438:0 439:0 440:0 441:0 442:0 443:0 444:0 445:0 446:0 447:1 448:0 449:0 450:0 451:0 452:0 453:2 454:0 455:0 456:0 457:0 458:0 459:0 460:0 461:0 462:0 463:0 464:0 465:0 466:0 467:0 468:0 469:0 470:0 471:0 472:0 473:0 474:0 475:0 476:0 477:0 478:0 479:0 480:0 481:0 482:0 483:16 484:0 485:0 486:2 487:0 488:0 489:0 490:0 491:1 492:1 493:1 494:0 495:0 496:0 497:0 498:2 499:0 500:0 501:0 502:0 503:0 504:0 505:0 506:0 507:0 508:0 509:0 510:0 511:0 512:0 513:0 514:0 515:0 516:0 517:0 518:0 519:0 520:0 521:0 522:0 523:0 524:0 525:0 526:0 527:0 528:0 529:0 530:0 531:1 532:0 533:8 534:2 535:0 536:0 537:0 538:0 539:0 540:1 541:0 542:0 543:0 544:0 545:0 546:0 547:0 548:0 549:0 550:0 551:0 552:2 553:0 554:0 555:0 556:0 557:0 558:0 559:0 560:0 561:0 562:0 563:0 564:0 565:0 566:0 567:0 568:0 569:0 570:0 571:0 572:0 573:0 574:0 575:0 576:0 577:0 578:0 579:0 580:0 581:0 582:0 583:0 584:0 585:0 586:0 587:0 588:0 589:0 590:0 591:0 592:0 593:0 594:0 595:0 596:0 597:0 598:0 599:0 600:0 601:0 602:0 603:0 604:0 605:0 606:0 607:0 608:0 609:0 610:0 611:0 612:0 613:0 614:0 615:0 616:0 617:0 618:0 619:4 620:0 621:0 622:0 623:0 624:0 625:0 626:0 627:0 628:0 629:0 630:0 631:0 632:0 633:1 634:0 635:1 636:0 637:0 638:0 639:0 640:0 641:0 642:0 643:1 644:0 645:0 646:0 647:0 648:0 649:0 650:0 651:0 652:0 653:0 654:0 655:0 656:0 657:0 658:0 659:4 660:0 661:1 662:0 663:1 664:0 665:0 666:0 667:0 668:0 669:0 670:0 671:0 672:0 673:0 674:0 675:0 676:0 677:0 678:0 679:2 680:0 681:0 682:0 683:0 684:0 685:4 686:1 687:0 688:0 689:0 690:1 691:0 692:0 693:0 694:0 695:0 696:0 697:0 698:0 699:0 700:0 701:0 702:0 703:0 704:0 705:0 706:0 707:0 708:0 709:0 710:0 711:0 712:0 713:0 714:0 715:0 716:0 717:0 718:0 719:0 720:0 721:0 722:0 723:0 724:0 725:0 726:0 727:0 728:2 729:0 730:0 731:0 732:0 733:0 734:0 735:0 736:0 737:0 738:0 739:0 740:0 741:0 742:0 743:0 744:0 745:0 746:0 747:0 748:0 749:0 750:0 751:0 752:0 753:0 754:0 755:0 756:0 757:0 758:0 759:0 760:0 761:0 762:0 763:0 764:0 765:0 766:0 767:0 768:0 769:0 770:0 771:0 772:0 773:0 774:0 775:0 776:0 777:0 778:0 779:0 780:0 781:0 782:0 783:0 784:0 785:0 786:0 787:1 788:0 789:0 790:0 791:0 792:0 793:0 794:0 795:0 796:0 797:0 798:0 799:0 800:0 
0 0 0.7918326327857478 0 0.3658786484768984 0 1:12 2:1 3:2 4:1 5:0 6:0 7:1 8:0 9:0 10:0 11:0 12:0 13:3 14:0 15:0 16:4 17:0 18:8 19:0 20:0 21:2 22:0 23:0 24:1 25:6 26:1 27:0 28:1 29:0 30:0 31:0 32:1 33:0 34:1 35:0 36:1 37:0 38:0 39:1 40:3 41:3 42:4 43:0 44:6 45:0 46:0 47:0 48:8 49:0 50:0 51:1 52:0 53:0 54:0 55:0 56:1 57:1 58:1 59:0 60:0 61:1 62:0 63:3 64:0 65:0 66:0 67:0 68:0 69:0 70:1 71:0 72:0 73:0 74:1 75:0 76:0 77:0 78:1 79:0 80:0 81:0 82:2 83:0 84:1 85:0 86:0 87:0 88:0 89:0 90:0 91:1 92:1 93:3 94:0 95:0 96:0 97:0 98:0 99:0 100:0 101:0 102:0 103:0 104:8 105:0 106:1 107:0 108:0 109:0 110:0 111:0 112:0 113:2 114:0 115:0 116:0 117:1 118:0 119:1 120:0 121:1 122:1 123:0 124:5 125:2 126:0 127:0 128:3 129:1 130:1 131:3 132:0 133:0 134:2 135:0 136:0 137:0 138:1 139:0 140:0 141:1 142:0 143:1 144:0 145:0 146:0 147:0 148:0 149:0 150:1 151:0 152:0 153:2 154:1 155:0 156:0 157:3 158:0 159:0 160:0 161:0 162:0 163:0 164:0 165:1 166:0 167:0 168:0 169:1 170:0 171:0 172:1 173:2 174:0 175:0 176:0 177:1 178:0 179:0 180:0 181:1 182:0 183:0 184:0 185:0 186:0 187:0 188:0 189:4 190:0 191:0 192:2 193:0 194:0 195:0 196:0 197:0 198:0 199:3 200:0 201:0 202:0 203:0 204:0 205:0 206:2 207:0 208:0 209:1 210:0 211:0 212:0 213:0 214:1 215:0 216:0 217:0 218:1 219:0 220:0 221:0 222:0 223:0 224:0 225:0 226:0 227:0 228:0 229:0 230:0 231:0 232:0 233:0 234:0 235:0 236:1 237:0 238:0 239:0 240:0 241:0 242:0 243:4 244:0 245:0 246:1 247:0 248:0 249:0 250:0 251:1 252:0 253:0 254:0 255:0 256:5 257:0 258:0 259:0 260:0 261:0 262:0 263:2 264:0 265:0 266:0 267:0 268:0 269:0 270:3 271:4 272:0 273:1 274:0 275:0 276:0 277:0 278:0 279:0 280:0 281:4 282:1 283:0 284:0 285:2 286:0 287:0 288:0 289:0 290:0 291:0 292:0 293:0 294:1 295:0 296:0 297:0 298:0 299:0 300:0 301:0 302:0 303:0 304:0 305:0 306:0 307:0 308:0 309:0 310:0 311:0 312:0 313:0 314:1 315:0 316:0 317:2 318:0 319:0 320:0 321:0 322:0 323:0 324:0 325:0 326:0 327:0 328:0 329:6 330:0 331:1 332:0 333:0 334:0 335:0 336:3 337:0 338:0 339:1 340:2 341:0 342:0 343:0 344:1 345:0 346:0 347:0 348:0 349:0 350:0 351:0 352:0 353:0 354:0 355:0 356:0 357:0 358:0 359:0 360:0 361:0 362:0 363:0 364:1 365:0 366:2 367:0 368:0 369:0 370:0 371:0 372:0 373:1 374:0 375:0 376:0 377:0 378:17 379:0 380:0 381:0 382:0 383:0 384:0 385:0 386:1 387:1 388:0 389:0 390:0 391:0 392:0 393:0 394:0 395:0 396:0 397:0 398:0 399:1 400:0 401:0 402:0 403:0 404:0 405:0 406:0 407:0 408:0 409:0 410:0 411:0 412:0 413:1 414:0 415:0 416:0 417:0 418:0 419:1 420:0 421:0 422:0 423:0 424:0 425:0 426:0 427:0 428:0 429:0 430:0 431:0 432:0 433:0 434:1 435:0 436:0 437:3 438:0 439:0 440:0 441:0 442:0 443:0 444:0 445:0 446:0 447:0 448:0 449:0 450:0 451:0 452:0 453:1 454:0 455:0 456:0 457:0 458:0 459:1 460:0 461:0 462:0 463:0 464:0 465:0 466:0 467:0 468:1 469:1 470:0 471:0 472:0 473:1 474:0 475:0 476:0 477:0 478:0 479:0 480:0 481:0 482:0 483:9 484:0 485:0 486:2 487:1 488:0 489:0 490:0 491:0 492:1 493:0 494:0 495:0 496:0 497:0 498:0 499:0 500:0 501:1 502:0 503:0 504:0 505:0 506:0 507:0 508:0 509:2 510:0 511:0 512:0 513:0 514:0 515:0 516:2 517:0 518:0 519:0 520:0 521:2 522:0 523:0 524:0 525:0 526:0 527:0 528:0 529:0 530:0 531:0 532:0 533:4 534:2 535:0 536:0 537:0 538:0 539:0 540:1 541:0 542:0 543:0 544:0 545:0 546:0 547:0 548:0 549:0 550:0 551:0 552:1 553:0 554:0 555:0 556:0 557:0 558:0 559:0 560:0 561:0 562:0 563:0 564:0 565:0 566:0 567:0 568:0 569:0 570:1 571:0 572:0 573:0 574:0 575:0 576:0 577:0 578:0 579:0 580:0 581:0 582:0 583:0 584:0 585:0 586:0 587:0 588:0 589:0 590:1 591:0 592:0 593:0 594:0 595:2 596:0 597:0 598:0 599:0 600:0 601:0 602:0 603:0 604:0 605:0 606:0 607:0 608:0 609:0 610:0 611:0 612:1 613:0 614:0 615:0 616:0 617:0 618:0 619:2 620:0 621:0 622:0 623:0 624:0 625:0 626:0 627:0 628:0 629:0 630:1 631:0 632:0 633:1 634:0 635:0 636:0 637:0 638:0 639:0 640:0 641:0 642:0 643:0 644:0 645:0 646:0 647:0 648:0 649:0 650:0 651:0 652:0 653:0 654:0 655:0 656:0 657:0 658:1 659:2 660:0 661:0 662:0 663:0 664:0 665:0 666:0 667:0 668:0 669:0 670:0 671:0 672:0 673:0 674:0 675:0 676:0 677:0 678:1 679:3 680:0 681:0 682:0 683:0 684:0 685:0 686:0 687:0 688:0 689:1 690:1 691:0 692:0 693:0 694:0 695:0 696:0 697:0 698:0 699:0 700:0 701:0 702:0 703:0 704:0 705:0 706:0 707:0 708:0 709:0 710:0 711:0 712:0 713:0 714:0 715:0 716:0 717:0 718:0 719:0 720:0 721:0 722:0 723:0 724:0 725:0 726:0 727:0 728:1 729:0 730:0 731:0 732:0 733:0 734:0 735:0 736:0 737:0 738:0 739:0 740:0 741:0 742:0 743:0 744:0 745:1 746:0 747:0 748:0 749:0 750:0 751:0 752:0 753:0 754:0 755:0 756:0 757:0 758:0 759:0 760:0 761:0 762:0 763:0 764:0 765:0 766:0 767:0 768:0 769:0 770:0 771:0 772:0 773:0 774:0 775:0 776:0 777:0 778:0 779:0 780:0 781:0 782:0 783:0 784:0 785:0 786:0 787:0 788:0 789:0 790:0 791:0 792:0 793:0 794:0 795:0 796:0 797:0 798:0 799:0 800:0 
8.153618484256839 7.096341737463361 15 15 5.996564190204751 15 1:6 2:1 3:1 4:0 5:1 6:4 7:1 8:2 9:1 10:2 11:1 12:1 13:2 14:0 15:0 16:2 17:0 18:3 19:0 20:0 21:1 22:0 23:1 24:0 25:6 26:1 27:0 28:0 29:0 30:0 31:0 32:0 33:0 34:0 35:0 36:0 37:0 38:1 39:0 40:1 41:0 42:0 43:0 44:0 45:1 46:0 47:0 48:4 49:1 50:0 51:0 52:0 53:0 54:0 55:0 56:0 57:0 58:0 59:0 60:0 61:1 62:0 63:3 64:1 65:0 66:1 67:0 68:1 69:0 70:1 71:0 72:0 73:0 74:0 75:0 76:0 77:0 78:0 79:0 80:0 81:0 82:0 83:0 84:0 85:0 86:0 87:1 88:0 89:0 90:0 91:0 92:0 93:2 94:0 95:0 96:0 97:0 98:0 99:0 100:0 101:0 102:0 103:0 104:1 105:1 106:3 107:0 108:0 109:0 110:0 111:0 112:0 113:0 114:0 115:0 116:0 117:0 118:0 119:0 120:0 121:0 122:0 123:0 124:0 125:0 126:0 127:2 128:0 129:0 130:0 131:0 132:0 133:0 134:0 135:0 136:0 137:0 138:0 139:0 140:0 141:0 142:0 143:0 144:0 145:2 146:0 147:0 148:0 149:0 150:1 151:0 152:1 153:0 154:0 155:0 156:0 157:0 158:0 159:0 160:0 161:0 162:0 163:0 164:0 165:0 166:0 167:0 168:0 169:0 170:0 171:0 172:0 173:1 174:1 175:0 176:0 177:0 178:0 179:0 180:0 181:0 182:0 183:0 184:0 185:0 186:0 187:0 188:0 189:0 190:0 191:0 192:0 193:0 194:0 195:0 196:0 197:0 198:0 199:0 200:0 201:0 202:0 203:1 204:0 205:0 206:1 207:0 208:0 209:0 210:0 211:0 212:0 213:0 214:0 215:0 216:0 217:0 218:0 219:0 220:0 221:0 222:0 223:4 224:0 225:0 226:0 227:0 228:0 229:0 230:0 231:0 232:0 233:0 234:0 235:0 236:0 237:5 238:2 239:0 240:0 241:0 242:0 243:0 244:0 245:0 246:0 247:0 248:0 249:0 250:0 251:0 252:3 253:1 254:0 255:0 256:1 257:0 258:0 259:0 260:0 261:0 262:0 263:1 264:0 265:0 266:0 267:0 268:0 269:0 270:6 271:4 272:0 273:0 274:0 275:0 276:0 277:0 278:0 279:0 280:0 281:0 282:0 283:0 284:0 285:1 286:0 287:0 288:0 289:0 290:0 291:0 292:0 293:0 294:0 295:0 296:0 297:1 298:0 299:0 300:0 301:0 302:0 303:0 304:0 305:0 306:0 307:0 308:0 309:0 310:0 311:0 312:0 313:0 314:0 315:0 316:3 317:0 318:0 319:0 320:2 321:0 322:1 323:0 324:0 325:0 326:0 327:0 328:0 329:5 330:0 331:0 332:0 333:0 334:0 335:0 336:0 337:0 338:0 339:0 340:0 341:1 342:0 343:0 344:0 345:0 346:0 347:0 348:0 349:0 350:0 351:0 352:0 353:0 354:0 355:0 356:0 357:0 358:0 359:0 360:0 361:0 362:0 363:0 364:0 365:0 366:0 367:1 368:0 369:1 370:0 371:0 372:0 373:1 374:2 375:0 376:0 377:0 378:1 379:0 380:0 381:0 382:0 383:0 384:0 385:0 386:0 387:0 388:0 389:0 390:0 391:0 392:0 393:0 394:0 395:1 396:0 397:0 398:0 399:0 400:0 401:0 402:0 403:0 404:0 405:0 406:0 407:0 408:0 409:0 410:0 411:0 412:0 413:1 414:0 415:0 416:0 417:0 418:0 419:0 420:0 421:0 422:0 423:0 424:0 425:0 426:0 427:0 428:0 429:0 430:0 431:0 432:0 433:0 434:0 435:0 436:0 437:0 438:0 439:0 440:0 441:1 442:0 443:0 444:0 445:0 446:0 447:0 448:0 449:0 450:0 451:0 452:0 453:0 454:0 455:0 456:0 457:0 458:0 459:0 460:0 461:0 462:0 463:0 464:0 465:0 466:0 467:0 468:1 469:0 470:0 471:0 472:0 473:1 474:0 475:0 476:0 477:0 478:0 479:0 480:0 481:0 482:0 483:2 484:0 485:1 486:0 487:0 488:0 489:2 490:1 491:0 492:0 493:0 494:0 495:0 496:0 497:0 498:0 499:0 500:0 501:0 502:0 503:0 504:0 505:0 506:0 507:0 508:0 509:0 510:0 511:0 512:0 513:0 514:0 515:0 516:0 517:0 518:0 519:0 520:0 521:0 522:0 523:0 524:1 525:0 526:0 527:0 528:0 529:0 530:0 531:0 532:0 533:1 534:3 535:0 536:0 537:0 538:0 539:0 540:1 541:0 542:0 543:0 544:0 545:0 546:1 547:0 548:0 549:0 550:0 551:0 552:0 553:0 554:0 555:0 556:0 557:0 558:0 559:0 560:1 561:0 562:0 563:0 564:0 565:0 566:0 567:0 568:0 569:0 570:0 571:0 572:0 573:0 574:0 575:0 576:0 577:0 578:0 579:0 580:0 581:0 582:0 583:0 584:0 585:0 586:0 587:1 588:0 589:0 590:0 591:0 592:0 593:0 594:0 595:0 596:0 597:0 598:1 599:0 600:0 601:0 602:0 603:0 604:0 605:0 606:0 607:0 608:0 609:0 610:0 611:0 612:0 613:0 614:0 615:0 616:0 617:0 618:0 619:2 620:0 621:0 622:0 623:0 624:0 625:0 626:0 627:0 628:0 629:0 630:0 631:0 632:0 633:1 634:0 635:0 636:0 637:1 638:0 639:0 640:0 641:0 642:0 643:0 644:0 645:0 646:0 647:0 648:0 649:0 650:0 651:0 652:0 653:0 654:0 655:0 656:0 657:0 658:0 659:0 660:0 661:0 662:0 663:0 664:0 665:0 666:0 667:0 668:0 669:0 670:0 671:0 672:1 673:0 674:0 675:0 676:0 677:0 678:0 679:0 680:0 681:0 682:0 683:0 684:0 685:1 686:0 687:0 688:0 689:0 690:0 691:0 692:0 693:0 694:0 695:0 696:0 697:0 698:0 699:0 700:0 701:0 702:0 703:0 704:0 705:0 706:0 707:0 708:0 709:0 710:0 711:0 712:0 713:0 714:0 715:0 716:0 717:0 718:0 719:0 720:0 721:0 722:0 723:0 724:0 725:0 726:0 727:0 728:0 729:0 730:0 731:0 732:0 733:0 734:0 735:0 736:1 737:0 738:0 739:0 740:0 741:0 742:0 743:1 744:0 745:0 746:0 747:0 748:0 749:0 750:0 751:0 752:0 753:0 754:0 755:0 756:0 757:0 758:0 759:0 760:0 761:0 762:0 763:0 764:0 765:0 766:0 767:0 768:0 769:0 770:0 771:0 772:0 773:0 774:0 775:0 776:0 777:0 778:0 779:0 780:0 781:0 782:0 783:0 784:0 785:0 786:0 787:0 788:0 789:0 790:0 791:0 792:0 793:0 794:0 795:0 796:0 797:0 798:0 799:0 800:0 
0 0.540825541164452 0 0 0 0 1:10 2:1 3:0 4:1 5:0 6:0 7:0 8:2 9:0 10:6 11:0 12:1 13:4 14:0 15:0 16:5 17:1 18:0 19:0 20:0 21:4 22:0 23:0 24:0 25:0 26:0 27:0 28:10 29:0 30:0 31:0 32:0 33:0 34:6 35:2 36:1 37:6 38:0 39:1 40:0 41:1 42:3 43:1 44:0 45:3 46:0 47:0 48:1 49:0 50:0 51:1 52:1 53:0 54:0 55:1 56:0 57:0 58:0 59:2 60:0 61:1 62:3 63:12 64:0 65:0 66:0 67:0 68:0 69:1 70:0 71:0 72:0 73:9 74:0 75:0 76:0 77:2 78:0 79:0 80:0 81:0 82:0 83:0 84:0 85:0 86:0 87:1 88:1 89:0 90:0 91:0 92:1 93:0 94:4 95:1 96:1 97:0 98:0 99:1 100:0 101:12 102:0 103:0 104:2 105:0 106:0 107:0 108:0 109:0 110:0 111:0 112:0 113:0 114:0 115:0 116:0 117:0 118:0 119:0 120:0 121:4 122:1 123:0 124:0 125:0 126:0 127:0 128:7 129:0 130:0 131:0 132:0 133:1 134:0 135:0 136:0 137:0 138:0 139:0 140:0 141:0 142:1 143:0 144:0 145:1 146:0 147:0 148:0 149:1 150:0 151:1 152:0 153:1 154:1 155:0 156:0 157:0 158:0 159:1 160:0 161:1 162:0 163:0 164:0 165:0 166:6 167:0 168:1 169:4 170:0 171:1 172:0 173:0 174:0 175:0 176:1 177:0 178:0 179:2 180:0 181:1 182:0 183:0 184:0 185:0 186:0 187:0 188:0 189:3 190:0 191:0 192:5 193:0 194:2 195:0 196:0 197:0 198:0 199:0 200:1 201:0 202:1 203:0 204:0 205:0 206:0 207:0 208:2 209:4 210:0 211:0 212:0 213:1 214:0 215:0 216:1 217:0 218:0 219:0 220:0 221:0 222:0 223:0 224:1 225:0 226:1 227:5 228:1 229:1 230:1 231:0 232:1 233:4 234:0 235:1 236:0 237:0 238:0 239:0 240:0 241:0 242:1 243:1 244:2 245:0 246:0 247:0 248:1 249:1 250:1 251:0 252:0 253:3 254:0 255:0 256:0 257:0 258:0 259:0 260:0 261:0 262:5 263:0 264:0 265:0 266:0 267:0 268:0 269:1 270:1 271:5 272:0 273:0 274:0 275:0 276:0 277:0 278:2 279:1 280:9 281:0 282:2 283:0 284:0 285:0 286:2 287:0 288:1 289:0 290:0 291:2 292:0 293:0 294:2 295:0 296:0 297:4 298:0 299:0 300:2 301:0 302:0 303:0 304:1 305:1 306:4 307:0 308:0 309:1 310:0 311:0 312:0 313:0 314:0 315:0 316:0 317:0 318:0 319:0 320:0 321:0 322:0 323:0 324:0 325:0 326:1 327:0 328:0 329:0 330:0 331:0 332:0 333:0 334:0 335:0 336:0 337:1 338:0 339:7 340:0 341:0 342:0 343:0 344:0 345:0 346:0 347:1 348:0 349:0 350:0 351:0 352:0 353:0 354:0 355:0 356:0 357:0 358:0 359:0 360:0 361:1 362:0 363:0 364:0 365:0 366:0 367:0 368:0 369:0 370:0 371:0 372:1 373:3 374:0 375:0 376:0 377:0 378:19 379:0 380:0 381:0 382:0 383:0 384:0 385:0 386:0 387:0 388:0 389:0 390:0 391:0 392:0 393:0 394:0 395:0 396:0 397:0 398:0 399:0 400:0 401:0 402:0 403:0 404:1 405:0 406:0 407:0 408:0 409:0 410:0 411:0 412:0 413:0 414:1 415:0 416:0 417:0 418:1 419:0 420:0 421:0 422:0 423:0 424:0 425:0 426:0 427:0 428:0 429:0 430:0 431:0 432:1 433:0 434:0 435:1 436:0 437:0 438:0 439:0 440:0 441:1 442:0 443:7 444:0 445:0 446:0 447:0 448:0 449:0 450:0 451:0 452:0 453:0 454:0 455:0 456:1 457:0 458:0 459:0 460:0 461:0 462:0 463:0 464:0 465:0 466:0 467:0 468:0 469:0 470:0 471:0 472:0 473:0 474:3 475:0 476:0 477:0 478:0 479:1 480:0 481:0 482:0 483:0 484:0 485:0 486:3 487:0 488:0 489:0 490:0 491:0 492:0 493:1 494:0 495:0 496:0 497:0 498:0 499:1 500:0 501:1 502:6 503:0 504:0 505:0 506:0 507:0 508:1 509:0 510:0 511:0 512:0 513:0 514:0 515:0 516:0 517:0 518:0 519:0 520:0 521:0 522:0 523:0 524:1 525:0 526:0 527:0 528:0 529:0 530:0 531:0 532:0 533:0 534:0 535:0 536:0 537:0 538:0 539:0 540:0 541:0 542:3 543:1 544:0 545:0 546:4 547:0 548:0 549:0 550:0 551:0 552:0 553:0 554:0 555:0 556:0 557:0 558:0 559:0 560:0 561:0 562:0 563:0 564:0 565:0 566:0 567:0 568:1 569:0 570:2 571:0 572:0 573:0 574:0 575:0 576:3 577:0 578:0 579:0 580:0 581:0 582:0 583:0 584:0 585:0 586:0 587:0 588:0 589:1 590:0 591:0 592:0 593:0 594:0 595:0 596:0 597:0 598:0 599:0 600:0 601:0 602:0 603:0 604:0 605:0 606:0 607:0 608:0 609:0 610:1 611:0 612:1 613:0 614:0 615:0 616:0 617:2 618:0 619:0 620:0 621:0 622:0 623:0 624:0 625:0 626:0 627:0 628:0 629:0 630:0 631:0 632:1 633:0 634:0 635:0 636:0 637:0 638:0 639:0 640:0 641:0 642:0 643:0 644:0 645:0 646:0 647:0 648:0 649:0 650:0 651:0 652:0 653:0 654:1 655:0 656:0 657:0 658:1 659:0 660:0 661:0 662:0 663:0 664:0 665:0 666:0 667:0 668:0 669:0 670:0 671:0 672:0 673:0 674:0 675:0 676:0 677:0 678:0 679:0 680:0 681:0 682:0 683:0 684:0 685:0 686:1 687:0 688:0 689:0 690:0 691:0 692:0 693:0 694:0 695:3 696:0 697:0 698:0 699:0 700:0 701:0 702:0 703:0 704:0 705:0 706:0 707:0 708:0 709:0 710:0 711:0 712:0 713:0 714:0 715:0 716:1 717:0 718:0 719:0 720:0 721:0 722:1 723:0 724:0 725:0 726:0 727:0 728:0 729:0 730:0 731:0 732:0 733:0 734:0 735:0 736:0 737:0 738:0 739:0 740:0 741:0 742:0 743:0 744:0 745:0 746:0 747:0 748:0 749:1 750:0 751:0 752:0 753:0 754:0 755:0 756:0 757:0 758:0 759:0 760:0 761:0 762:0 763:0 764:0 765:0 766:0 767:0 768:1 769:0 770:0 771:0 772:0 773:0 774:0 775:0 776:0 777:0 778:0 779:0 780:0 781:0 782:0 783:0 784:0 785:0 786:0 787:0 788:0 789:0 790:0 791:0 792:0 793:1 794:0 795:0 796:0 797:0 798:1 799:0 800:0 
0 0.5272926128653688 0 0 0 0 1:13 2:6 3:0 4:5 5:0 6:1 7:1 8:2 9:0 10:1 11:1 12:1 13:1 14:0 15:0 16:1 17:0 18:0 19:0 20:0 21:2 22:0 23:1 24:1 25:1 26:0 27:0 28:1 29:0 30:0 31:0 32:0 33:0 34:5 35:1 36:0 37:1 38:0 39:4 40:4 41:0 42:0 43:2 44:0 45:0 46:1 47:0 48:3 49:1 50:0 51:0 52:0 53:0 54:0 55:2 56:5 57:1 58:0 59:0 60:0 61:2 62:0 63:3 64:0 65:0 66:1 67:0 68:0 69:0 70:1 71:0 72:0 73:7 74:0 75:5 76:0 77:3 78:1 79:1 80:0 81:5 82:0 83:1 84:0 85:0 86:1 87:0 88:0 89:0 90:0 91:0 92:3 93:0 94:1 95:0 96:6 97:0 98:0 99:0 100:0 101:0 102:0 103:0 104:0 105:5 106:0 107:0 108:0 109:0 110:0 111:0 112:0 113:3 114:0 115:0 116:0 117:5 118:0 119:0 120:0 121:0 122:0 123:1 124:0 125:3 126:4 127:1 128:0 129:0 130:1 131:0 132:1 133:0 134:1 135:2 136:7 137:0 138:0 139:0 140:0 141:0 142:0 143:0 144:0 145:0 146:0 147:0 148:0 149:1 150:0 151:0 152:0 153:0 154:1 155:0 156:0 157:0 158:0 159:3 160:0 161:1 162:0 163:0 164:0 165:1 166:0 167:0 168:1 169:6 170:0 171:0 172:0 173:0 174:0 175:0 176:0 177:2 178:0 179:0 180:0 181:0 182:0 183:0 184:0 185:0 186:0 187:1 188:5 189:0 190:0 191:0 192:0 193:0 194:6 195:4 196:0 197:1 198:5 199:0 200:0 201:1 202:1 203:11 204:0 205:0 206:9 207:0 208:1 209:0 210:0 211:0 212:0 213:0 214:0 215:0 216:1 217:0 218:0 219:0 220:0 221:0 222:0 223:0 224:0 225:0 226:0 227:0 228:0 229:3 230:0 231:0 232:0 233:3 234:0 235:1 236:0 237:0 238:0 239:0 240:0 241:0 242:4 243:0 244:0 245:0 246:0 247:0 248:0 249:0 250:0 251:0 252:0 253:9 254:0 255:0 256:0 257:0 258:0 259:0 260:0 261:5 262:6 263:0 264:0 265:1 266:2 267:0 268:0 269:0 270:4 271:8 272:0 273:0 274:0 275:0 276:5 277:0 278:0 279:0 280:6 281:0 282:1 283:0 284:0 285:0 286:0 287:0 288:3 289:0 290:0 291:0 292:0 293:2 294:0 295:0 296:0 297:7 298:0 299:0 300:0 301:1 302:0 303:0 304:0 305:0 306:3 307:0 308:1 309:1 310:0 311:0 312:0 313:0 314:1 315:0 316:0 317:0 318:0 319:0 320:0 321:0 322:0 323:0 324:0 325:0 326:0 327:0 328:0 329:0 330:0 331:0 332:0 333:0 334:0 335:1 336:7 337:0 338:0 339:1 340:1 341:0 342:1 343:0 344:2 345:0 346:0 347:0 348:0 349:0 350:0 351:0 352:0 353:0 354:0 355:0 356:0 357:0 358:9 359:0 360:0 361:0 362:0 363:0 364:0 365:0 366:0 367:0 368:0 369:0 370:0 371:0 372:1 373:0 374:0 375:0 376:0 377:0 378:5 379:0 380:0 381:0 382:1 383:0 384:0 385:0 386:0 387:0 388:1 389:3 390:0 391:0 392:0 393:0 394:0 395:0 396:0 397:0 398:0 399:0 400:0 401:0 402:0 403:0 404:0 405:0 406:0 407:0 408:0 409:0 410:0 411:0 412:0 413:1 414:0 415:0 416:1 417:2 418:0 419:0 420:0 421:0 422:0 423:0 424:0 425:0 426:0 427:0 428:0 429:0 430:4 431:0 432:0 433:0 434:0 435:0 436:0 437:0 438:0 439:0 440:0 441:1 442:0 443:0 444:0 445:0 446:0 447:0 448:0 449:0 450:0 451:0 452:0 453:0 454:0 455:0 456:0 457:0 458:0 459:0 460:1 461:0 462:0 463:0 464:0 465:0 466:0 467:0 468:0 469:0 470:0 471:0 472:1 473:0 474:0 475:0 476:0 477:0 478:0 479:1 480:0 481:0 482:1 483:0 484:0 485:0 486:0 487:0 488:0 489:0 490:0 491:0 492:0 493:0 494:0 495:0 496:0 497:0 498:0 499:1 500:0 501:0 502:0 503:0 504:0 505:0 506:0 507:0 508:0 509:0 510:0 511:0 512:0 513:0 514:0 515:0 516:0 517:0 518:0 519:0 520:0 521:0 522:0 523:0 524:1 525:0 526:0 527:0 528:0 529:0 530:0 531:0 532:0 533:0 534:0 535:0 536:0 537:0 538:0 539:0 540:0 541:0 542:0 543:0 544:0 545:0 546:5 547:0 548:0 549:0 550:0 551:0 552:0 553:0 554:0 555:0 556:0 557:0 558:0 559:0 560:0 561:0 562:0 563:0 564:0 565:1 566:0 567:0 568:1 569:0 570:0 571:0 572:0 573:0 574:0 575:0 576:1 577:0 578:0 579:0 580:0 581:0 582:0 583:0 584:0 585:0 586:0 587:8 588:0 589:0 590:0 591:0 592:0 593:0 594:0 595:0 596:0 597:0 598:0 599:0 600:0 601:0 602:0 603:0 604:0 605:0 606:0 607:0 608:0 609:0 610:0 611:0 612:2 613:0 614:1 615:0 616:0 617:0 618:0 619:0 620:0 621:0 622:0 623:0 624:0 625:0 626:0 627:0 628:0 629:0 630:0 631:0 632:0 633:1 634:0 635:1 636:0 637:0 638:2 639:0 640:0 641:0 642:0 643:0 644:0 645:0 646:1 647:0 648:0 649:0 650:0 651:0 652:0 653:0 654:0 655:0 656:6 657:2 658:0 659:0 660:0 661:0 662:0 663:0 664:1 665:0 666:0 667:0 668:0 669:0 670:0 671:0 672:0 673:0 674:0 675:0 676:0 677:0 678:0 679:0 680:0 681:0 682:0 683:0 684:0 685:0 686:0 687:0 688:0 689:0 690:0 691:0 692:0 693:0 694:0 695:0 696:0 697:0 698:0 699:0 700:0 701:0 702:0 703:0 704:0 705:0 706:0 707:0 708:0 709:0 710:0 711:0 712:0 713:0 714:0 715:0 716:0 717:0 718:0 719:0 720:0 721:0 722:0 723:0 724:0 725:0 726:0 727:0 728:0 729:0 730:0 731:0 732:0 733:2 734:0 735:0 736:0 737:0 738:0 739:0 740:0 741:0 742:0 743:0 744:0 745:0 746:0 747:0 748:0 749:0 750:0 751:0 752:0 753:0 754:1 755:0 756:0 757:0 758:0 759:0 760:0 761:0 762:0 763:0 764:0 765:0 766:0 767:0 768:0 769:0 770:0 771:0 772:0 773:0 774:0 775:0 776:0 777:0 778:0 779:0 780:0 781:0 782:4 783:0 784:0 785:0 786:0 787:0 788:0 789:0 790:0 791:0 792:0 793:1 794:0 795:0 796:0 797:0 798:1 799:0 800:0 
1.001080713457554 1.376520823912319 0.6385053303647406 0.4428577267001289 1.059993322796628 0.2842552839822713 1:134 2:38 3:1 4:45 5:1 6:29 7:16 8:14 9:0 10:31 11:3 12:1 13:18 14:0 15:8 16:6 17:7 18:15 19:1 20:2 21:8 22:0 23:17 24:2 25:3 26:15 27:0 28:1 29:0 30:3 31:0 32:0 33:0 34:10 35:0 36:13 37:0 38:1 39:1 40:3 41:6 42:10 43:12 44:60 45:2 46:11 47:0 48:7 49:76 50:0 51:1 52:2 53:1 54:0 55:10 56:3 57:2 58:6 59:12 60:0 61:4 62:1 63:52 64:0 65:0 66:2 67:0 68:6 69:0 70:6 71:0 72:0 73:13 74:3 75:1 76:4 77:51 78:4 79:0 80:0 81:6 82:17 83:0 84:1 85:0 86:2 87:1 88:0 89:0 90:4 91:0 92:6 93:4 94:2 95:1 96:15 97:0 98:0 99:12 100:0 101:0 102:10 103:0 104:24 105:47 106:1 107:0 108:1 109:3 110:0 111:2 112:1 113:6 114:2 115:0 116:1 117:17 118:1 119:5 120:2 121:6 122:7 123:1 124:6 125:2 126:19 127:8 128:5 129:1 130:4 131:1 132:3 133:2 134:6 135:32 136:14 137:0 138:4 139:8 140:24 141:0 142:10 143:3 144:8 145:5 146:0 147:1 148:2 149:1 150:0 151:2 152:0 153:10 154:0 155:0 156:0 157:1 158:8 159:68 160:0 161:10 162:0 163:0 164:3 165:2 166:0 167:0 168:0 169:8 170:0 171:4 172:2 173:2 174:5 175:1 176:1 177:1 178:0 179:0 180:0 181:0 182:0 183:0 184:0 185:9 186:1 187:5 188:32 189:1 190:0 191:1 192:3 193:24 194:45 195:0 196:0 197:11 198:1 199:0 200:0 201:1 202:1 203:38 204:2 205:1 206:26 207:0 208:1 209:0 210:0 211:11 212:4 213:0 214:0 215:1 216:17 217:0 218:0 219:0 220:0 221:0 222:0 223:0 224:0 225:36 226:1 227:3 228:0 229:11 230:0 231:0 232:0 233:8 234:1 235:1 236:6 237:0 238:3 239:0 240:0 241:0 242:2 243:1 244:2 245:0 246:1 247:3 248:0 249:1 250:2 251:0 252:0 253:3 254:0 255:3 256:7 257:0 258:1 259:1 260:13 261:0 262:8 263:0 264:2 265:0 266:3 267:3 268:0 269:9 270:32 271:1 272:6 273:1 274:1 275:1 276:0 277:0 278:3 279:3 280:13 281:0 282:1 283:0 284:2 285:1 286:1 287:0 288:49 289:3 290:0 291:2 292:0 293:2 294:0 295:1 296:1 297:0 298:2 299:0 300:0 301:2 302:0 303:0 304:0 305:0 306:5 307:0 308:1 309:2 310:0 311:1 312:6 313:0 314:0 315:3 316:0 317:0 318:0 319:1 320:1 321:0 322:1 323:0 324:0 325:0 326:1 327:0 328:0 329:3 330:0 331:0 332:0 333:0 334:0 335:2 336:43 337:1 338:0 339:2 340:4 341:0 342:0 343:1 344:1 345:9 346:0 347:0 348:0 349:4 350:0 351:0 352:0 353:0 354:0 355:3 356:0 357:0 358:23 359:0 360:0 361:0 362:0 363:0 364:0 365:0 366:4 367:2 368:46 369:1 370:0 371:0 372:1 373:0 374:1 375:4 376:1 377:0 378:133 379:0 380:1 381:0 382:8 383:0 384:0 385:0 386:0 387:0 388:3 389:0 390:4 391:2 392:0 393:4 394:1 395:0 396:0 397:0 398:8 399:0 400:0 401:0 402:8 403:0 404:0 405:1 406:0 407:0 408:0 409:0 410:0 411:0 412:0 413:0 414:0 415:12 416:0 417:0 418:0 419:0 420:0 421:24 422:0 423:0 424:0 425:0 426:2 427:0 428:0 429:1 430:3 431:0 432:0 433:0 434:3 435:2 436:0 437:0 438:1 439:1 440:0 441:3 442:0 443:2 444:1 445:0 446:0 447:2 448:0 449:10 450:0 451:3 452:0 453:1 454:3 455:1 456:0 457:1 458:1 459:0 460:0 461:0 462:0 463:0 464:6 465:0 466:0 467:2 468:0 469:0 470:0 471:0 472:3 473:0 474:0 475:0 476:0 477:5 478:0 479:7 480:0 481:0 482:9 483:26 484:0 485:9 486:0 487:0 488:0 489:0 490:0 491:0 492:0 493:1 494:2 495:0 496:11 497:2 498:0 499:1 500:0 501:1 502:0 503:0 504:0 505:0 506:4 507:0 508:33 509:3 510:0 511:0 512:0 513:0 514:0 515:0 516:0 517:2 518:0 519:0 520:0 521:0 522:1 523:0 524:1 525:0 526:0 527:0 528:4 529:0 530:0 531:0 532:0 533:7 534:5 535:0 536:0 537:0 538:1 539:0 540:0 541:0 542:0 543:0 544:2 545:0 546:6 547:0 548:14 549:0 550:0 551:1 552:5 553:4 554:0 555:0 556:0 557:0 558:0 559:0 560:0 561:0 562:0 563:0 564:0 565:0 566:0 567:0 568:1 569:0 570:0 571:0 572:1 573:0 574:1 575:0 576:1 577:0 578:0 579:0 580:0 581:0 582:0 583:0 584:0 585:0 586:0 587:2 588:0 589:0 590:12 591:0 592:0 593:0 594:0 595:0 596:0 597:0 598:2 599:0 600:0 601:1 602:0 603:0 604:2 605:0 606:0 607:0 608:13 609:0 610:1 611:0 612:6 613:0 614:3 615:0 616:0 617:0 618:1 619:1 620:1 621:0 622:0 623:0 624:0 625:2 626:0 627:0 628:1 629:0 630:0 631:1 632:0 633:4 634:0 635:0 636:0 637:0 638:2 639:0 640:0 641:0 642:0 643:0 644:1 645:0 646:1 647:1 648:0 649:0 650:0 651:0 652:0 653:0 654:3 655:0 656:0 657:0 658:1 659:13 660:0 661:0 662:0 663:0 664:1 665:0 666:0 667:0 668:0 669:0 670:0 671:6 672:0 673:0 674:0 675:0 676:0 677:0 678:0 679:0 680:0 681:0 682:0 683:0 684:0 685:0 686:0 687:0 688:0 689:0 690:0 691:0 692:0 693:0 694:0 695:6 696:0 697:0 698:0 699:0 700:0 701:0 702:0 703:0 704:0 705:0 706:0 707:0 708:0 709:0 710:0 711:0 712:0 713:0 714:0 715:0 716:0 717:1 718:0 719:0 720:0 721:0 722:0 723:0 724:0 725:0 726:0 727:0 728:3 729:0 730:1 731:0 732:0 733:2 734:0 735:0 736:0 737:0 738:0 739:0 740:0 741:0 742:0 743:0 744:0 745:0 746:3 747:0 748:0 749:4 750:0 751:0 752:0 753:0 754:10 755:2 756:0 757:0 758:0 759:0 760:0 761:0 762:0 763:0 764:0 765:0 766:0 767:0 768:0 769:1 770:0 771:2 772:0 773:0 774:2 775:0 776:0 777:0 778:0 779:0 780:0 781:0 782:15 783:0 784:0 785:0 786:0 787:0 788:0 789:1 790:0 791:0 792:0 793:1 794:0 795:0 796:1 797:0 798:31 799:0 800:0 
0 0.4437530641193139 0 0 0.2115133618169173 0 1:30 2:4 3:6 4:8 5:0 6:8 7:14 8:8 9:3 10:5 11:3 12:2 13:16 14:0 15:2 16:1 17:6 18:5 19:1 20:4 21:14 22:0 23:0 24:1 25:9 26:4 27:0 28:0 29:0 30:0 31:0 32:0 33:0 34:6 35:0 36:4 37:4 38:1 39:1 40:2 41:1 42:9 43:2 44:2 45:2 46:2 47:1 48:4 49:1 50:4 51:4 52:4 53:0 54:0 55:6 56:2 57:4 58:2 59:3 60:3 61:2 62:3 63:11 64:2 65:0 66:1 67:0 68:0 69:0 70:0 71:1 72:0 73:12 74:2 75:1 76:1 77:3 78:2 79:2 80:0 81:2 82:5 83:0 84:4 85:0 86:6 87:0 88:0 89:2 90:5 91:1 92:1 93:0 94:1 95:0 96:13 97:0 98:0 99:4 100:0 101:0 102:1 103:1 104:0 105:1 106:1 107:0 108:3 109:2 110:0 111:0 112:5 113:2 114:1 115:0 116:4 117:1 118:0 119:6 120:1 121:2 122:4 123:1 124:0 125:4 126:2 127:7 128:2 129:0 130:0 131:5 132:4 133:1 134:0 135:3 136:7 137:0 138:0 139:0 140:3 141:0 142:7 143:0 144:0 145:0 146:0 147:1 148:0 149:1 150:1 151:1 152:0 153:6 154:7 155:0 156:1 157:0 158:1 159:2 160:0 161:5 162:0 163:0 164:0 165:0 166:0 167:2 168:0 169:5 170:1 171:0 172:4 173:0 174:10 175:0 176:0 177:5 178:0 179:1 180:0 181:2 182:0 183:0 184:2 185:1 186:2 187:3 188:0 189:2 190:0 191:1 192:0 193:2 194:11 195:3 196:0 197:1 198:0 199:2 200:2 201:1 202:1 203:41 204:2 205:0 206:0 207:0 208:1 209:0 210:3 211:0 212:1 213:1 214:0 215:0 216:3 217:0 218:0 219:3 220:4 221:1 222:1 223:0 224:4 225:3 226:2 227:0 228:0 229:13 230:4 231:0 232:1 233:3 234:0 235:3 236:0 237:1 238:1 239:0 240:0 241:0 242:0 243:0 244:0 245:0 246:3 247:2 248:3 249:0 250:0 251:1 252:0 253:5 254:4 255:5 256:2 257:1 258:1 259:3 260:1 261:0 262:5 263:0 264:4 265:0 266:1 267:0 268:0 269:5 270:53 271:1 272:6 273:2 274:0 275:0 276:0 277:0 278:0 279:1 280:14 281:0 282:1 283:0 284:0 285:1 286:1 287:0 288:3 289:0 290:0 291:0 292:0 293:2 294:0 295:1 296:4 297:2 298:8 299:0 300:0 301:0 302:0 303:0 304:1 305:2 306:3 307:0 308:0 309:9 310:1 311:3 312:1 313:0 314:0 315:1 316:0 317:0 318:0 319:1 320:0 321:0 322:0 323:0 324:0 325:0 326:6 327:1 328:0 329:4 330:0 331:0 332:0 333:0 334:0 335:1 336:0 337:2 338:0 339:1 340:0 341:1 342:0 343:0 344:3 345:0 346:1 347:0 348:4 349:0 350:0 351:0 352:2 353:0 354:0 355:1 356:0 357:0 358:9 359:0 360:0 361:2 362:2 363:2 364:0 365:0 366:0 367:0 368:0 369:3 370:0 371:0 372:1 373:2 374:0 375:0 376:2 377:0 378:3 379:0 380:0 381:0 382:0 383:1 384:0 385:0 386:0 387:0 388:3 389:0 390:0 391:0 392:0 393:1 394:0 395:1 396:0 397:0 398:1 399:0 400:0 401:2 402:0 403:1 404:0 405:0 406:0 407:1 408:0 409:0 410:0 411:1 412:0 413:0 414:0 415:1 416:0 417:1 418:0 419:0 420:0 421:3 422:1 423:0 424:0 425:0 426:4 427:1 428:0 429:0 430:3 431:0 432:1 433:1 434:2 435:1 436:0 437:0 438:0 439:0 440:0 441:5 442:0 443:0 444:0 445:0 446:0 447:1 448:0 449:1 450:0 451:0 452:0 453:2 454:0 455:1 456:2 457:1 458:0 459:0 460:0 461:0 462:0 463:0 464:0 465:0 466:0 467:0 468:0 469:0 470:0 471:0 472:0 473:0 474:0 475:0 476:0 477:4 478:2 479:3 480:0 481:0 482:0 483:1 484:0 485:1 486:5 487:0 488:0 489:0 490:0 491:0 492:0 493:1 494:1 495:1 496:0 497:2 498:0 499:0 500:0 501:1 502:0 503:0 504:1 505:0 506:0 507:3 508:1 509:2 510:0 511:0 512:0 513:0 514:0 515:0 516:2 517:6 518:3 519:0 520:0 521:0 522:0 523:0 524:2 525:0 526:0 527:0 528:0 529:3 530:0 531:0 532:4 533:0 534:0 535:1 536:0 537:1 538:0 539:0 540:0 541:0 542:0 543:0 544:2 545:0 546:4 547:0 548:0 549:0 550:0 551:0 552:0 553:4 554:0 555:0 556:0 557:0 558:0 559:0 560:0 561:1 562:0 563:1 564:0 565:0 566:0 567:1 568:1 569:0 570:0 571:0 572:3 573:0 574:0 575:0 576:1 577:0 578:0 579:0 580:1 581:0 582:0 583:2 584:0 585:0 586:0 587:4 588:0 589:0 590:2 591:0 592:0 593:0 594:0 595:0 596:0 597:0 598:2 599:5 600:0 601:0 602:1 603:0 604:1 605:0 606:0 607:0 608:1 609:0 610:4 611:4 612:1 613:0 614:1 615:0 616:0 617:2 618:3 619:1 620:0 621:0 622:0 623:0 624:0 625:1 626:0 627:0 628:0 629:0 630:4 631:0 632:0 633:0 634:0 635:0 636:0 637:4 638:2 639:1 640:1 641:0 642:0 643:0 644:0 645:0 646:2 647:0 648:0 649:2 650:0 651:1 652:2 653:0 654:7 655:3 656:0 657:0 658:0 659:0 660:0 661:0 662:0 663:0 664:1 665:0 666:0 667:0 668:0 669:0 670:0 671:8 672:0 673:0 674:0 675:0 676:0 677:0 678:0 679:5 680:0 681:0 682:0 683:0 684:0 685:0 686:0 687:1 688:0 689:0 690:0 691:0 692:0 693:0 694:0 695:2 696:1 697:0 698:0 699:0 700:0 701:0 702:0 703:0 704:0 705:0 706:1 707:0 708:0 709:3 710:0 711:0 712:0 713:1 714:2 715:0 716:1 717:0 718:0 719:0 720:0 721:0 722:0 723:0 724:0 725:0 726:0 727:0 728:1 729:0 730:0 731:0 732:0 733:2 734:0 735:0 736:0 737:0 738:1 739:0 740:0 741:0 742:0 743:0 744:0 745:0 746:2 747:0 748:0 749:2 750:1 751:0 752:0 753:0 754:0 755:0 756:0 757:0 758:0 759:0 760:0 761:0 762:0 763:0 764:2 765:0 766:0 767:0 768:0 769:0 770:0 771:0 772:0 773:0 774:2 775:0 776:6 777:0 778:0 779:0 780:0 781:0 782:1 783:0 784:0 785:0 786:0 787:0 788:0 789:0 790:0 791:0 792:0 793:1 794:0 795:0 796:0 797:0 798:2 799:1 800:0 
1.06481499571937 1.46495557769691 0.6780435248459544 0.4711794359432516 1.127924491534138 0.3030691669124288 1:125 2:19 3:2 4:15 5:1 6:20 7:18 8:25 9:0 10:21 11:5 12:1 13:32 14:0 15:3 16:2 17:5 18:10 19:9 20:1 21:12 22:0 23:22 24:1 25:15 26:16 27:0 28:1 29:0 30:1 31:0 32:0 33:2 34:20 35:0 36:8 37:8 38:2 39:13 40:5 41:5 42:38 43:1 44:3 45:39 46:10 47:0 48:11 49:5 50:8 51:8 52:5 53:0 54:1 55:19 56:14 57:8 58:5 59:8 60:1 61:7 62:64 63:69 64:5 65:0 66:6 67:2 68:3 69:0 70:3 71:0 72:0 73:33 74:5 75:5 76:2 77:35 78:4 79:0 80:0 81:5 82:6 83:0 84:2 85:0 86:15 87:0 88:0 89:0 90:11 91:3 92:14 93:4 94:1 95:0 96:46 97:0 98:0 99:3 100:0 101:1 102:35 103:4 104:4 105:38 106:4 107:0 108:1 109:4 110:1 111:0 112:3 113:13 114:0 115:0 116:1 117:19 118:0 119:5 120:0 121:4 122:7 123:1 124:5 125:15 126:109 127:8 128:9 129:3 130:5 131:0 132:5 133:3 134:4 135:21 136:12 137:0 138:4 139:9 140:34 141:0 142:37 143:0 144:0 145:6 146:0 147:0 148:2 149:3 150:8 151:0 152:0 153:1 154:5 155:0 156:0 157:3 158:3 159:3 160:0 161:12 162:0 163:0 164:2 165:4 166:1 167:1 168:7 169:8 170:1 171:8 172:2 173:0 174:87 175:0 176:0 177:11 178:2 179:19 180:0 181:3 182:0 183:0 184:45 185:5 186:0 187:2 188:54 189:2 190:0 191:3 192:4 193:34 194:20 195:0 196:0 197:14 198:0 199:0 200:19 201:1 202:1 203:10 204:8 205:0 206:63 207:0 208:1 209:0 210:0 211:0 212:0 213:0 214:0 215:0 216:18 217:0 218:11 219:1 220:0 221:4 222:0 223:0 224:0 225:4 226:8 227:1 228:0 229:44 230:12 231:2 232:3 233:3 234:0 235:2 236:2 237:0 238:1 239:0 240:0 241:2 242:39 243:0 244:3 245:0 246:0 247:0 248:0 249:3 250:3 251:0 252:0 253:15 254:0 255:1 256:2 257:1 258:3 259:10 260:8 261:5 262:7 263:0 264:1 265:1 266:6 267:2 268:0 269:8 270:115 271:0 272:11 273:3 274:0 275:0 276:6 277:0 278:0 279:3 280:72 281:5 282:7 283:0 284:0 285:7 286:0 287:0 288:42 289:0 290:0 291:20 292:0 293:2 294:3 295:0 296:6 297:154 298:74 299:0 300:2 301:3 302:0 303:0 304:0 305:0 306:4 307:0 308:0 309:10 310:0 311:0 312:2 313:0 314:1 315:0 316:0 317:0 318:0 319:0 320:0 321:0 322:2 323:1 324:0 325:2 326:7 327:0 328:0 329:15 330:0 331:0 332:0 333:0 334:0 335:1 336:19 337:3 338:0 339:7 340:0 341:3 342:11 343:0 344:13 345:0 346:0 347:0 348:4 349:9 350:1 351:2 352:0 353:0 354:0 355:5 356:1 357:0 358:16 359:0 360:0 361:14 362:1 363:0 364:11 365:0 366:6 367:0 368:0 369:0 370:0 371:0 372:1 373:8 374:0 375:0 376:2 377:0 378:14 379:3 380:0 381:1 382:7 383:0 384:0 385:0 386:0 387:2 388:4 389:15 390:1 391:0 392:0 393:1 394:0 395:1 396:0 397:2 398:4 399:5 400:0 401:0 402:2 403:1 404:2 405:0 406:0 407:0 408:0 409:0 410:0 411:2 412:0 413:0 414:0 415:4 416:0 417:5 418:0 419:0 420:0 421:5 422:0 423:0 424:0 425:0 426:3 427:0 428:0 429:0 430:9 431:0 432:0 433:1 434:4 435:0 436:0 437:0 438:0 439:0 440:0 441:21 442:0 443:1 444:0 445:0 446:0 447:1 448:0 449:7 450:2 451:0 452:1 453:0 454:24 455:1 456:21 457:0 458:0 459:0 460:0 461:5 462:0 463:0 464:0 465:0 466:0 467:0 468:3 469:0 470:1 471:0 472:0 473:0 474:1 475:0 476:2 477:1 478:1 479:9 480:0 481:0 482:0 483:0 484:0 485:7 486:2 487:1 488:0 489:0 490:118 491:0 492:1 493:19 494:0 495:0 496:0 497:1 498:0 499:3 500:0 501:19 502:0 503:0 504:0 505:0 506:0 507:2 508:23 509:1 510:0 511:0 512:0 513:0 514:2 515:0 516:3 517:4 518:0 519:0 520:0 521:2 522:0 523:0 524:1 525:0 526:0 527:0 528:0 529:2 530:0 531:1 532:5 533:3 534:0 535:1 536:0 537:0 538:0 539:1 540:0 541:0 542:0 543:0 544:1 545:0 546:5 547:0 548:0 549:0 550:0 551:0 552:0 553:0 554:0 555:3 556:0 557:0 558:1 559:0 560:0 561:2 562:0 563:0 564:10 565:0 566:0 567:0 568:1 569:0 570:3 571:0 572:2 573:0 574:0 575:0 576:1 577:0 578:0 579:0 580:1 581:1 582:0 583:1 584:0 585:0 586:0 587:22 588:2 589:0 590:15 591:0 592:0 593:0 594:0 595:0 596:0 597:1 598:9 599:24 600:0 601:0 602:0 603:0 604:0 605:0 606:0 607:0 608:1 609:0 610:10 611:0 612:1 613:0 614:1 615:0 616:0 617:2 618:1 619:4 620:0 621:0 622:2 623:0 624:0 625:5 626:0 627:0 628:0 629:0 630:0 631:1 632:0 633:7 634:0 635:0 636:0 637:16 638:13 639:0 640:0 641:0 642:0 643:0 644:0 645:0 646:2 647:6 648:0 649:1 650:0 651:0 652:0 653:0 654:22 655:1 656:4 657:6 658:0 659:1 660:1 661:0 662:0 663:0 664:3 665:0 666:0 667:0 668:0 669:0 670:0 671:35 672:0 673:0 674:0 675:0 676:0 677:0 678:0 679:35 680:0 681:0 682:0 683:0 684:0 685:0 686:0 687:1 688:0 689:0 690:7 691:0 692:0 693:0 694:0 695:16 696:0 697:0 698:0 699:0 700:0 701:0 702:0 703:0 704:0 705:0 706:0 707:0 708:0 709:0 710:0 711:0 712:0 713:0 714:0 715:0 716:0 717:0 718:2 719:0 720:0 721:0 722:0 723:0 724:0 725:0 726:0 727:0 728:9 729:0 730:0 731:0 732:0 733:2 734:0 735:0 736:0 737:0 738:0 739:0 740:0 741:0 742:0 743:0 744:0 745:0 746:5 747:0 748:1 749:6 750:0 751:0 752:0 753:0 754:2 755:0 756:0 757:0 758:0 759:0 760:0 761:1 762:0 763:0 764:2 765:0 766:0 767:0 768:6 769:0 770:0 771:0 772:0 773:0 774:2 775:0 776:2 777:0 778:0 779:4 780:0 781:0 782:6 783:0 784:0 785:0 786:0 787:0 788:0 789:0 790:0 791:0 792:0 793:1 794:0 795:0 796:0 797:0 798:7 799:0 800:0 
1.41658164047824 0 2.9160529244161 3.421263255986122 0.1013357178851079 2.981606159827669 1:6 2:2 3:1 4:2 5:2 6:2 7:0 8:0 9:0 10:0 11:4 12:1 13:1 14:0 15:0 16:1 17:0 18:10 19:0 20:0 21:0 22:0 23:0 24:1 25:0 26:1 27:0 28:0 29:0 30:0 31:0 32:0 33:0 34:0 35:0 36:0 37:0 38:0 39:2 40:0 41:3 42:7 43:1 44:8 45:0 46:0 47:0 48:3 49:1 50:0 51:0 52:0 53:0 54:0 55:0 56:4 57:1 58:0 59:1 60:0 61:1 62:0 63:3 64:0 65:1 66:0 67:0 68:0 69:0 70:1 71:0 72:0 73:0 74:0 75:4 76:0 77:0 78:1 79:0 80:0 81:0 82:0 83:0 84:0 85:0 86:0 87:0 88:0 89:1 90:0 91:1 92:0 93:3 94:0 95:0 96:0 97:0 98:0 99:0 100:0 101:0 102:0 103:0 104:7 105:0 106:1 107:0 108:0 109:0 110:0 111:0 112:0 113:0 114:0 115:0 116:3 117:0 118:0 119:2 120:0 121:0 122:1 123:0 124:6 125:3 126:1 127:1 128:1 129:0 130:0 131:1 132:0 133:0 134:1 135:0 136:0 137:0 138:0 139:0 140:0 141:0 142:0 143:1 144:0 145:0 146:0 147:0 148:0 149:0 150:0 151:1 152:2 153:0 154:0 155:0 156:0 157:2 158:1 159:2 160:0 161:0 162:0 163:0 164:0 165:0 166:0 167:0 168:0 169:0 170:3 171:0 172:0 173:5 174:0 175:0 176:0 177:0 178:0 179:0 180:0 181:0 182:0 183:0 184:2 185:0 186:0 187:0 188:0 189:4 190:0 191:0 192:0 193:0 194:0 195:0 196:0 197:0 198:0 199:0 200:0 201:0 202:0 203:0 204:0 205:0 206:0 207:0 208:0 209:0 210:0 211:0 212:0 213:0 214:0 215:0 216:1 217:0 218:0 219:0 220:0 221:1 222:0 223:0 224:0 225:0 226:0 227:0 228:0 229:0 230:0 231:0 232:1 233:0 234:0 235:0 236:1 237:0 238:0 239:1 240:0 241:0 242:0 243:4 244:0 245:0 246:0 247:0 248:0 249:0 250:0 251:0 252:0 253:0 254:0 255:1 256:0 257:0 258:0 259:0 260:0 261:0 262:0 263:1 264:0 265:0 266:0 267:0 268:0 269:0 270:1 271:4 272:0 273:0 274:0 275:0 276:0 277:0 278:0 279:0 280:0 281:5 282:0 283:0 284:0 285:2 286:0 287:0 288:0 289:0 290:0 291:0 292:0 293:2 294:0 295:0 296:0 297:0 298:0 299:0 300:0 301:0 302:0 303:0 304:1 305:0 306:0 307:0 308:0 309:0 310:0 311:0 312:1 313:0 314:0 315:0 316:0 317:0 318:0 319:0 320:0 321:0 322:1 323:0 324:0 325:0 326:0 327:0 328:0 329:3 330:0 331:2 332:0 333:0 334:0 335:0 336:1 337:0 338:0 339:0 340:1 341:0 342:0 343:0 344:0 345:1 346:0 347:0 348:0 349:0 350:0 351:0 352:0 353:0 354:0 355:0 356:0 357:0 358:0 359:0 360:0 361:0 362:0 363:0 364:0 365:0 366:0 367:0 368:0 369:0 370:0 371:0 372:0 373:0 374:0 375:0 376:0 377:0 378:17 379:0 380:0 381:0 382:0 383:0 384:0 385:0 386:0 387:0 388:0 389:0 390:0 391:0 392:0 393:0 394:0 395:0 396:0 397:0 398:0 399:0 400:0 401:0 402:0 403:0 404:0 405:0 406:0 407:0 408:0 409:0 410:0 411:0 412:0 413:1 414:0 415:0 416:0 417:0 418:0 419:0 420:0 421:0 422:0 423:0 424:0 425:0 426:0 427:0 428:0 429:1 430:0 431:0 432:0 433:0 434:0 435:0 436:0 437:0 438:0 439:0 440:0 441:0 442:0 443:0 444:0 445:0 446:0 447:0 448:0 449:0 450:0 451:0 452:0 453:2 454:0 455:0 456:0 457:0 458:0 459:0 460:0 461:0 462:0 463:0 464:2 465:0 466:0 467:0 468:0 469:2 470:0 471:0 472:0 473:0 474:0 475:0 476:0 477:0 478:0 479:0 480:0 481:0 482:0 483:7 484:0 485:0 486:6 487:0 488:0 489:0 490:0 491:0 492:0 493:0 494:0 495:0 496:0 497:0 498:0 499:0 500:0 501:0 502:0 503:0 504:0 505:0 506:0 507:0 508:0 509:2 510:0 511:0 512:0 513:1 514:0 515:0 516:0 517:0 518:0 519:0 520:0 521:1 522:0 523:0 524:0 525:0 526:0 527:0 528:0 529:0 530:0 531:0 532:0 533:3 534:1 535:0 536:0 537:0 538:0 539:0 540:0 541:0 542:0 543:0 544:0 545:0 546:0 547:1 548:0 549:0 550:0 551:0 552:4 553:0 554:0 555:0 556:0 557:0 558:0 559:0 560:0 561:1 562:0 563:0 564:0 565:0 566:0 567:0 568:0 569:0 570:0 571:0 572:0 573:0 574:0 575:0 576:0 577:0 578:0 579:0 580:2 581:0 582:0 583:0 584:0 585:0 586:0 587:0 588:0 589:0 590:1 591:0 592:0 593:0 594:0 595:1 596:0 597:0 598:0 599:0 600:0 601:0 602:0 603:0 604:0 605:0 606:0 607:0 608:0 609:0 610:0 611:0 612:0 613:0 614:0 615:0 616:0 617:0 618:0 619:1 620:0 621:0 622:0 623:0 624:0 625:0 626:0 627:0 628:0 629:0 630:0 631:0 632:0 633:0 634:0 635:0 636:0 637:0 638:0 639:0 640:0 641:0 642:0 643:0 644:0 645:0 646:0 647:0 648:0 649:0 650:0 651:0 652:0 653:0 654:0 655:0 656:0 657:0 658:0 659:0 660:0 661:0 662:0 663:0 664:0 665:0 666:0 667:0 668:0 669:0 670:0 671:0 672:0 673:0 674:0 675:0 676:0 677:0 678:0 679:0 680:0 681:0 682:0 683:0 684:0 685:0 686:0 687:0 688:0 689:0 690:1 691:0 692:0 693:0 694:0 695:0 696:0 697:0 698:0 699:0 700:0 701:0 702:1 703:0 704:0 705:0 706:0 707:0 708:0 709:0 710:0 711:0 712:0 713:0 714:0 715:0 716:0 717:0 718:0 719:0 720:2 721:0 722:0 723:0 724:0 725:0 726:0 727:0 728:3 729:0 730:0 731:0 732:0 733:0 734:0 735:0 736:0 737:0 738:0 739:0 740:0 741:0 742:0 743:0 744:0 745:0 746:0 747:0 748:0 749:0 750:0 751:0 752:0 753:1 754:0 755:0 756:0 757:0 758:0 759:0 760:0 761:0 762:0 763:0 764:0 765:0 766:0 767:0 768:0 769:0 770:0 771:0 772:0 773:0 774:0 775:0 776:0 777:0 778:0 779:0 780:0 781:0 782:0 783:0 784:0 785:0 786:0 787:1 788:0 789:0 790:0 791:0 792:0 793:0 794:0 795:0 796:0 797:0 798:0 799:0 800:0 
0.4131400046398688 0.6163309968850633 0 0 0.4632059358822223 0 1:0 2:1 3:0 4:1 5:0 6:0 7:15 8:1 9:0 10:43 11:6 12:0 13:2 14:0 15:0 16:11 17:1 18:0 19:0 20:0 21:0 22:0 23:0 24:0 25:0 26:0 27:0 28:0 29:0 30:0 31:0 32:0 33:0 34:0 35:0 36:0 37:0 38:0 39:0 40:0 41:0 42:0 43:0 44:0 45:0 46:0 47:0 48:0 49:6 50:0 51:1 52:0 53:0 54:0 55:3 56:0 57:0 58:0 59:0 60:0 61:0 62:0 63:1 64:0 65:0 66:0 67:0 68:0 69:0 70:0 71:0 72:0 73:1 74:0 75:0 76:0 77:3 78:0 79:0 80:0 81:0 82:0 83:0 84:0 85:0 86:2 87:0 88:1 89:1 90:0 91:0 92:0 93:25 94:1 95:0 96:1 97:0 98:0 99:0 100:0 101:0 102:0 103:0 104:3 105:0 106:0 107:0 108:1 109:0 110:0 111:0 112:0 113:0 114:0 115:0 116:0 117:2 118:0 119:0 120:0 121:0 122:0 123:0 124:0 125:0 126:1 127:0 128:0 129:1 130:0 131:0 132:0 133:0 134:0 135:0 136:0 137:0 138:0 139:0 140:0 141:0 142:0 143:0 144:0 145:0 146:0 147:0 148:0 149:0 150:0 151:0 152:0 153:0 154:0 155:0 156:0 157:8 158:0 159:0 160:0 161:0 162:0 163:0 164:0 165:0 166:0 167:0 168:0 169:0 170:0 171:0 172:0 173:0 174:0 175:0 176:0 177:0 178:3 179:0 180:0 181:0 182:0 183:0 184:1 185:0 186:0 187:0 188:0 189:1 190:0 191:1 192:0 193:0 194:9 195:0 196:0 197:2 198:0 199:0 200:1 201:0 202:0 203:57 204:0 205:0 206:0 207:0 208:0 209:43 210:0 211:0 212:0 213:6 214:0 215:0 216:0 217:3 218:0 219:0 220:0 221:0 222:0 223:0 224:0 225:0 226:0 227:0 228:1 229:1 230:0 231:0 232:0 233:1 234:0 235:0 236:0 237:0 238:4 239:0 240:0 241:0 242:0 243:0 244:0 245:0 246:0 247:0 248:0 249:0 250:2 251:0 252:15 253:3 254:0 255:3 256:0 257:0 258:0 259:3 260:1 261:0 262:0 263:0 264:0 265:0 266:0 267:0 268:0 269:0 270:48 271:40 272:1 273:0 274:0 275:0 276:0 277:0 278:0 279:0 280:1 281:0 282:0 283:0 284:0 285:0 286:0 287:0 288:0 289:0 290:0 291:0 292:0 293:0 294:1 295:1 296:0 297:9 298:0 299:0 300:0 301:0 302:0 303:0 304:0 305:0 306:0 307:2 308:0 309:0 310:0 311:0 312:0 313:0 314:0 315:0 316:3 317:0 318:0 319:0 320:0 321:0 322:0 323:0 324:0 325:0 326:7 327:0 328:0 329:0 330:0 331:0 332:0 333:0 334:1 335:8 336:16 337:0 338:0 339:0 340:0 341:0 342:0 343:0 344:0 345:0 346:0 347:14 348:0 349:0 350:0 351:0 352:0 353:0 354:0 355:0 356:0 357:0 358:3 359:0 360:0 361:1 362:0 363:0 364:0 365:0 366:0 367:0 368:0 369:0 370:0 371:0 372:0 373:1 374:0 375:0 376:0 377:0 378:24 379:0 380:0 381:0 382:0 383:0 384:0 385:0 386:0 387:0 388:0 389:0 390:0 391:0 392:0 393:0 394:0 395:0 396:0 397:0 398:1 399:0 400:0 401:1 402:0 403:0 404:0 405:0 406:6 407:0 408:0 409:0 410:0 411:0 412:0 413:0 414:0 415:0 416:1 417:0 418:0 419:0 420:0 421:0 422:1 423:0 424:0 425:0 426:0 427:0 428:0 429:0 430:0 431:0 432:0 433:0 434:0 435:7 436:0 437:0 438:0 439:0 440:0 441:0 442:0 443:0 444:0 445:0 446:0 447:0 448:0 449:0 450:0 451:0 452:1 453:0 454:0 455:0 456:0 457:0 458:0 459:0 460:0 461:0 462:0 463:0 464:0 465:2 466:0 467:0 468:0 469:0 470:0 471:0 472:0 473:0 474:0 475:0 476:0 477:0 478:0 479:0 480:0 481:0 482:0 483:1 484:0 485:0 486:0 487:0 488:0 489:0 490:2 491:0 492:0 493:0 494:0 495:0 496:0 497:0 498:0 499:0 500:0 501:0 502:3 503:0 504:1 505:0 506:0 507:0 508:0 509:0 510:0 511:0 512:0 513:0 514:0 515:0 516:0 517:0 518:0 519:0 520:0 521:0 522:0 523:0 524:0 525:0 526:0 527:0 528:0 529:0 530:0 531:0 532:0 533:0 534:35 535:0 536:0 537:0 538:0 539:0 540:0 541:0 542:0 543:0 544:0 545:0 546:2 547:1 548:0 549:0 550:0 551:0 552:0 553:0 554:0 555:0 556:0 557:0 558:6 559:0 560:0 561:0 562:0 563:1 564:0 565:0 566:0 567:0 568:1 569:0 570:0 571:0 572:0 573:0 574:0 575:0 576:33 577:0 578:0 579:0 580:0 581:0 582:0 583:0 584:0 585:0 586:0 587:0 588:0 589:0 590:0 591:0 592:0 593:0 594:0 595:0 596:0 597:0 598:0 599:0 600:0 601:0 602:0 603:0 604:0 605:0 606:0 607:0 608:0 609:0 610:0 611:0 612:42 613:0 614:0 615:0 616:0 617:0 618:0 619:1 620:0 621:0 622:0 623:0 624:0 625:0 626:0 627:0 628:0 629:0 630:0 631:0 632:1 633:0 634:0 635:0 636:0 637:0 638:15 639:0 640:0 641:0 642:0 643:0 644:1 645:0 646:0 647:0 648:0 649:0 650:0 651:0 652:0 653:0 654:0 655:36 656:1 657:2 658:0 659:0 660:0 661:1 662:0 663:0 664:0 665:0 666:0 667:0 668:0 669:0 670:0 671:0 672:0 673:0 674:0 675:0 676:0 677:0 678:0 679:0 680:0 681:0 682:0 683:0 684:0 685:0 686:1 687:0 688:0 689:0 690:0 691:0 692:0 693:1 694:1 695:1 696:1 697:0 698:0 699:0 700:0 701:0 702:0 703:0 704:0 705:0 706:0 707:0 708:0 709:0 710:0 711:0 712:0 713:0 714:0 715:0 716:0 717:0 718:0 719:0 720:1 721:0 722:0 723:0 724:0 725:0 726:0 727:0 728:0 729:0 730:0 731:0 732:0 733:0 734:0 735:0 736:0 737:0 738:0 739:0 740:0 741:0 742:0 743:0 744:0 745:0 746:0 747:0 748:0 749:0 750:0 751:0 752:0 753:0 754:1 755:0 756:0 757:0 758:0 759:0 760:0 761:0 762:0 763:0 764:0 765:0 766:0 767:0 768:0 769:0 770:0 771:0 772:0 773:0 774:0 775:0 776:0 777:0 778:0 779:0 780:0 781:0 782:0 783:0 784:0 785:0 786:0 787:1 788:0 789:0 790:0 791:0 792:0 793:0 794:0 795:0 796:0 797:0 798:0 799:0 800:0 
1.754564083454421 2.391600174756992 3.89695275363352 4.069750955336716 0.8544605124117664 6.935707397584768 1:3 2:1 3:0 4:0 5:1 6:0 7:0 8:2 9:0 10:6 11:1 12:1 13:1 14:0 15:1 16:0 17:0 18:1 19:0 20:0 21:2 22:0 23:0 24:0 25:1 26:0 27:0 28:0 29:0 30:0 31:0 32:0 33:0 34:3 35:3 36:0 37:0 38:0 39:1 40:0 41:0 42:0 43:1 44:0 45:0 46:0 47:0 48:1 49:0 50:0 51:1 52:0 53:2 54:0 55:0 56:0 57:1 58:0 59:0 60:0 61:3 62:0 63:0 64:0 65:0 66:0 67:0 68:0 69:1 70:0 71:1 72:0 73:1 74:0 75:1 76:0 77:1 78:0 79:0 80:0 81:0 82:0 83:0 84:0 85:0 86:0 87:0 88:1 89:2 90:0 91:0 92:1 93:0 94:0 95:1 96:0 97:0 98:0 99:0 100:0 101:0 102:0 103:0 104:1 105:1 106:0 107:0 108:0 109:0 110:0 111:0 112:0 113:0 114:0 115:0 116:0 117:0 118:0 119:0 120:0 121:0 122:0 123:0 124:0 125:0 126:6 127:0 128:1 129:0 130:0 131:0 132:0 133:0 134:1 135:0 136:0 137:0 138:0 139:0 140:0 141:1 142:0 143:0 144:0 145:0 146:0 147:1 148:0 149:1 150:1 151:1 152:0 153:0 154:0 155:0 156:0 157:0 158:0 159:0 160:0 161:1 162:0 163:0 164:0 165:0 166:0 167:0 168:1 169:4 170:0 171:0 172:1 173:0 174:0 175:0 176:1 177:0 178:0 179:0 180:0 181:0 182:0 183:0 184:1 185:0 186:0 187:0 188:0 189:2 190:0 191:0 192:2 193:0 194:7 195:0 196:0 197:0 198:0 199:0 200:0 201:3 202:1 203:1 204:0 205:0 206:1 207:0 208:2 209:5 210:0 211:0 212:0 213:0 214:0 215:0 216:2 217:0 218:0 219:0 220:0 221:0 222:3 223:0 224:0 225:0 226:2 227:0 228:0 229:0 230:0 231:0 232:1 233:4 234:0 235:1 236:0 237:0 238:0 239:0 240:0 241:0 242:1 243:0 244:0 245:0 246:0 247:0 248:1 249:0 250:0 251:0 252:0 253:3 254:0 255:0 256:0 257:0 258:0 259:0 260:1 261:0 262:5 263:0 264:0 265:0 266:0 267:0 268:2 269:0 270:4 271:1 272:0 273:0 274:0 275:0 276:0 277:0 278:0 279:1 280:1 281:0 282:0 283:0 284:1 285:0 286:0 287:0 288:2 289:5 290:0 291:1 292:0 293:0 294:0 295:0 296:0 297:6 298:1 299:0 300:0 301:0 302:0 303:0 304:0 305:1 306:4 307:3 308:1 309:0 310:0 311:0 312:0 313:0 314:0 315:0 316:0 317:0 318:0 319:0 320:0 321:0 322:0 323:0 324:0 325:0 326:0 327:0 328:0 329:7 330:0 331:0 332:0 333:0 334:0 335:0 336:7 337:0 338:0 339:0 340:0 341:0 342:0 343:0 344:2 345:0 346:0 347:0 348:0 349:0 350:0 351:0 352:1 353:0 354:0 355:0 356:0 357:0 358:0 359:0 360:0 361:0 362:0 363:0 364:0 365:0 366:0 367:0 368:1 369:0 370:0 371:1 372:1 373:0 374:0 375:0 376:0 377:0 378:3 379:0 380:0 381:0 382:0 383:0 384:0 385:0 386:1 387:0 388:0 389:0 390:0 391:0 392:0 393:0 394:0 395:0 396:0 397:0 398:0 399:0 400:0 401:0 402:0 403:0 404:0 405:0 406:0 407:0 408:0 409:0 410:0 411:0 412:0 413:0 414:0 415:0 416:1 417:0 418:1 419:0 420:0 421:0 422:0 423:0 424:0 425:0 426:0 427:0 428:0 429:0 430:0 431:0 432:0 433:0 434:0 435:0 436:0 437:0 438:0 439:0 440:0 441:0 442:0 443:0 444:0 445:0 446:0 447:0 448:1 449:0 450:0 451:0 452:0 453:0 454:0 455:0 456:0 457:0 458:0 459:0 460:0 461:0 462:0 463:0 464:0 465:0 466:0 467:0 468:0 469:0 470:0 471:0 472:0 473:0 474:0 475:0 476:0 477:0 478:0 479:3 480:0 481:0 482:0 483:0 484:0 485:0 486:0 487:0 488:0 489:0 490:4 491:0 492:0 493:2 494:0 495:0 496:0 497:1 498:0 499:0 500:0 501:0 502:1 503:0 504:1 505:0 506:0 507:0 508:0 509:0 510:0 511:0 512:0 513:0 514:0 515:0 516:0 517:0 518:0 519:0 520:0 521:0 522:0 523:0 524:1 525:0 526:0 527:0 528:0 529:2 530:0 531:0 532:0 533:0 534:1 535:0 536:0 537:1 538:0 539:0 540:0 541:0 542:3 543:0 544:0 545:0 546:4 547:0 548:0 549:0 550:0 551:0 552:0 553:0 554:0 555:0 556:0 557:0 558:0 559:0 560:0 561:0 562:0 563:0 564:0 565:1 566:0 567:0 568:1 569:0 570:1 571:0 572:0 573:0 574:0 575:0 576:5 577:0 578:0 579:0 580:0 581:0 582:0 583:0 584:0 585:0 586:0 587:0 588:0 589:0 590:0 591:0 592:0 593:0 594:0 595:0 596:0 597:0 598:0 599:0 600:0 601:0 602:0 603:0 604:0 605:0 606:0 607:0 608:0 609:0 610:1 611:0 612:0 613:0 614:0 615:0 616:0 617:0 618:0 619:0 620:0 621:0 622:0 623:0 624:0 625:0 626:0 627:0 628:0 629:0 630:0 631:0 632:1 633:0 634:0 635:0 636:0 637:0 638:0 639:0 640:0 641:0 642:0 643:0 644:0 645:0 646:0 647:0 648:0 649:0 650:1 651:0 652:0 653:0 654:0 655:0 656:0 657:0 658:0 659:0 660:0 661:0 662:0 663:0 664:0 665:0 666:0 667:0 668:0 669:0 670:0 671:0 672:0 673:0 674:1 675:0 676:0 677:0 678:0 679:0 680:0 681:0 682:0 683:0 684:0 685:0 686:0 687:0 688:0 689:0 690:0 691:0 692:0 693:0 694:0 695:0 696:0 697:0 698:0 699:0 700:0 701:0 702:0 703:0 704:0 705:0 706:0 707:0 708:0 709:0 710:0 711:0 712:0 713:0 714:0 715:0 716:0 717:0 718:0 719:0 720:0 721:0 722:0 723:0 724:0 725:0 726:0 727:0 728:0 729:0 730:0 731:0 732:0 733:0 734:0 735:0 736:0 737:0 738:0 739:0 740:0 741:0 742:0 743:0 744:0 745:0 746:0 747:0 748:0 749:0 750:0 751:0 752:0 753:0 754:0 755:0 756:0 757:0 758:0 759:0 760:0 761:0 762:0 763:0 764:0 765:1 766:0 767:0 768:0 769:0 770:0 771:0 772:0 773:0 774:0 775:0 776:0 777:0 778:0 779:0 780:0 781:0 782:1 783:0 784:0 785:0 786:0 787:0 788:0 789:0 790:0 791:0 792:0 793:1 794:2 795:0 796:0 797:0 798:1 799:0 800:0 
0.2158698080815678 1.713510063045536 1.781307636789852 0.9479667760278385 0.8052965330170441 0.2682373439178978 1:8 2:2 3:1 4:2 5:6 6:0 7:3 8:2 9:0 10:15 11:4 12:1 13:8 14:1 15:0 16:11 17:1 18:2 19:0 20:1 21:0 22:0 23:1 24:0 25:5 26:0 27:0 28:2 29:0 30:1 31:0 32:0 33:0 34:9 35:0 36:0 37:0 38:1 39:2 40:0 41:2 42:1 43:3 44:1 45:3 46:3 47:0 48:6 49:1 50:3 51:0 52:0 53:2 54:1 55:3 56:0 57:2 58:0 59:0 60:0 61:1 62:1 63:1 64:1 65:0 66:0 67:0 68:0 69:0 70:0 71:0 72:0 73:2 74:3 75:0 76:1 77:0 78:1 79:0 80:0 81:0 82:0 83:0 84:0 85:0 86:0 87:0 88:0 89:2 90:0 91:3 92:0 93:7 94:1 95:0 96:1 97:0 98:0 99:0 100:0 101:0 102:0 103:0 104:1 105:2 106:2 107:0 108:1 109:1 110:0 111:0 112:2 113:1 114:0 115:0 116:0 117:0 118:0 119:3 120:2 121:0 122:1 123:0 124:2 125:1 126:3 127:3 128:2 129:0 130:0 131:0 132:0 133:0 134:0 135:1 136:0 137:0 138:0 139:0 140:0 141:0 142:0 143:1 144:0 145:4 146:0 147:0 148:0 149:0 150:4 151:0 152:0 153:3 154:1 155:0 156:0 157:1 158:0 159:3 160:0 161:9 162:0 163:0 164:1 165:0 166:2 167:0 168:0 169:0 170:0 171:0 172:0 173:1 174:0 175:0 176:0 177:0 178:0 179:0 180:1 181:1 182:0 183:0 184:4 185:0 186:0 187:0 188:0 189:0 190:0 191:0 192:1 193:0 194:2 195:0 196:0 197:0 198:0 199:1 200:1 201:1 202:0 203:8 204:0 205:1 206:1 207:0 208:0 209:22 210:0 211:2 212:0 213:1 214:0 215:0 216:0 217:0 218:0 219:2 220:0 221:1 222:0 223:0 224:0 225:0 226:1 227:0 228:0 229:0 230:0 231:1 232:0 233:0 234:0 235:0 236:1 237:0 238:1 239:0 240:1 241:0 242:2 243:1 244:0 245:0 246:0 247:0 248:0 249:0 250:1 251:0 252:0 253:0 254:0 255:1 256:1 257:1 258:0 259:0 260:1 261:2 262:0 263:0 264:0 265:1 266:0 267:0 268:0 269:1 270:2 271:20 272:0 273:0 274:0 275:0 276:0 277:0 278:0 279:1 280:2 281:0 282:0 283:0 284:1 285:2 286:0 287:0 288:0 289:0 290:1 291:0 292:0 293:0 294:1 295:0 296:2 297:3 298:2 299:0 300:1 301:0 302:0 303:0 304:0 305:0 306:0 307:0 308:0 309:0 310:0 311:3 312:0 313:0 314:0 315:0 316:0 317:1 318:0 319:0 320:0 321:0 322:1 323:0 324:0 325:2 326:1 327:0 328:0 329:0 330:0 331:0 332:0 333:0 334:0 335:1 336:1 337:0 338:0 339:0 340:4 341:0 342:0 343:0 344:0 345:1 346:0 347:0 348:0 349:1 350:0 351:0 352:0 353:0 354:0 355:0 356:0 357:0 358:1 359:1 360:0 361:0 362:0 363:1 364:0 365:0 366:0 367:3 368:0 369:1 370:0 371:2 372:0 373:15 374:0 375:0 376:0 377:0 378:2 379:1 380:0 381:0 382:0 383:0 384:0 385:0 386:1 387:0 388:0 389:0 390:0 391:0 392:0 393:0 394:0 395:0 396:0 397:6 398:1 399:2 400:0 401:0 402:0 403:0 404:0 405:0 406:0 407:0 408:0 409:0 410:0 411:0 412:0 413:0 414:0 415:0 416:2 417:1 418:0 419:0 420:0 421:0 422:0 423:0 424:0 425:0 426:0 427:0 428:0 429:0 430:0 431:0 432:1 433:0 434:2 435:1 436:0 437:0 438:0 439:2 440:0 441:1 442:0 443:0 444:0 445:0 446:0 447:0 448:0 449:0 450:0 451:1 452:2 453:0 454:0 455:0 456:0 457:0 458:0 459:0 460:0 461:0 462:0 463:4 464:0 465:0 466:0 467:2 468:0 469:0 470:1 471:1 472:0 473:1 474:0 475:0 476:0 477:0 478:0 479:2 480:0 481:0 482:0 483:3 484:0 485:0 486:0 487:0 488:0 489:1 490:0 491:0 492:0 493:0 494:0 495:0 496:0 497:0 498:0 499:0 500:0 501:0 502:1 503:0 504:1 505:0 506:0 507:0 508:0 509:0 510:3 511:0 512:0 513:0 514:0 515:0 516:0 517:0 518:0 519:0 520:0 521:0 522:0 523:0 524:0 525:0 526:0 527:0 528:0 529:0 530:0 531:1 532:0 533:0 534:3 535:6 536:0 537:0 538:0 539:0 540:0 541:0 542:0 543:0 544:2 545:0 546:0 547:0 548:0 549:0 550:0 551:0 552:6 553:0 554:0 555:0 556:0 557:0 558:7 559:0 560:0 561:0 562:0 563:0 564:0 565:0 566:0 567:0 568:0 569:0 570:1 571:0 572:0 573:0 574:0 575:0 576:0 577:0 578:0 579:0 580:0 581:0 582:0 583:0 584:0 585:0 586:1 587:0 588:0 589:0 590:0 591:0 592:0 593:0 594:0 595:0 596:0 597:0 598:0 599:0 600:0 601:0 602:0 603:2 604:0 605:0 606:0 607:0 608:0 609:0 610:0 611:0 612:0 613:0 614:0 615:0 616:0 617:0 618:0 619:0 620:0 621:0 622:0 623:0 624:0 625:0 626:0 627:0 628:0 629:0 630:0 631:0 632:0 633:2 634:0 635:0 636:0 637:0 638:1 639:0 640:1 641:0 642:0 643:0 644:0 645:0 646:0 647:0 648:0 649:0 650:2 651:0 652:1 653:0 654:0 655:6 656:0 657:0 658:0 659:0 660:0 661:2 662:0 663:0 664:1 665:0 666:3 667:0 668:0 669:0 670:0 671:0 672:0 673:0 674:0 675:0 676:0 677:0 678:0 679:0 680:0 681:0 682:0 683:0 684:2 685:0 686:0 687:0 688:0 689:0 690:0 691:0 692:1 693:0 694:0 695:0 696:1 697:0 698:0 699:5 700:0 701:0 702:0 703:0 704:0 705:0 706:0 707:0 708:0 709:0 710:0 711:0 712:0 713:0 714:0 715:0 716:1 717:0 718:0 719:0 720:0 721:0 722:0 723:0 724:0 725:0 726:0 727:0 728:0 729:0 730:0 731:0 732:0 733:0 734:0 735:0 736:0 737:0 738:0 739:0 740:0 741:0 742:0 743:0 744:0 745:0 746:0 747:0 748:2 749:0 750:0 751:0 752:0 753:0 754:0 755:0 756:0 757:0 758:0 759:0 760:0 761:0 762:0 763:0 764:0 765:0 766:0 767:0 768:3 769:0 770:1 771:0 772:0 773:0 774:1 775:0 776:0 777:0 778:1 779:0 780:0 781:0 782:0 783:0 784:0 785:0 786:0 787:0 788:0 789:0 790:0 791:0 792:0 793:0 794:0 795:0 796:0 797:0 798:0 799:0 800:0 
0 0 0.3548336224541681 0 0 0 1:13 2:2 3:1 4:2 5:1 6:1 7:3 8:5 9:0 10:1 11:1 12:1 13:2 14:0 15:0 16:3 17:0 18:3 19:0 20:0 21:1 22:0 23:1 24:0 25:0 26:0 27:0 28:0 29:0 30:0 31:0 32:0 33:0 34:2 35:0 36:0 37:1 38:1 39:0 40:2 41:1 42:1 43:0 44:0 45:0 46:1 47:0 48:2 49:0 50:0 51:0 52:0 53:0 54:0 55:0 56:0 57:1 58:0 59:0 60:0 61:0 62:0 63:11 64:0 65:0 66:1 67:2 68:0 69:0 70:3 71:0 72:0 73:3 74:0 75:0 76:0 77:1 78:0 79:1 80:0 81:0 82:0 83:1 84:0 85:0 86:0 87:0 88:0 89:0 90:2 91:0 92:1 93:0 94:3 95:0 96:2 97:0 98:0 99:6 100:0 101:0 102:3 103:1 104:1 105:0 106:0 107:0 108:0 109:0 110:0 111:0 112:0 113:0 114:0 115:0 116:0 117:0 118:0 119:0 120:0 121:1 122:0 123:0 124:0 125:0 126:7 127:1 128:0 129:0 130:0 131:3 132:0 133:0 134:3 135:1 136:5 137:0 138:0 139:0 140:1 141:0 142:1 143:0 144:0 145:0 146:0 147:0 148:0 149:1 150:0 151:1 152:0 153:0 154:0 155:0 156:0 157:0 158:0 159:0 160:0 161:0 162:1 163:0 164:0 165:0 166:0 167:2 168:0 169:6 170:0 171:0 172:0 173:0 174:0 175:0 176:0 177:0 178:0 179:0 180:0 181:0 182:1 183:0 184:0 185:0 186:0 187:0 188:0 189:0 190:0 191:0 192:0 193:1 194:10 195:0 196:0 197:0 198:0 199:0 200:0 201:0 202:2 203:4 204:0 205:0 206:1 207:0 208:1 209:0 210:0 211:0 212:0 213:0 214:0 215:0 216:1 217:0 218:0 219:0 220:1 221:0 222:0 223:0 224:0 225:0 226:1 227:0 228:0 229:0 230:0 231:0 232:0 233:3 234:0 235:3 236:0 237:0 238:0 239:0 240:0 241:0 242:0 243:0 244:0 245:0 246:0 247:0 248:0 249:0 250:0 251:0 252:0 253:5 254:0 255:0 256:1 257:0 258:0 259:0 260:0 261:0 262:6 263:0 264:0 265:0 266:1 267:0 268:0 269:1 270:1 271:0 272:1 273:0 274:0 275:0 276:0 277:0 278:0 279:0 280:4 281:0 282:1 283:0 284:0 285:0 286:0 287:0 288:0 289:0 290:0 291:0 292:0 293:2 294:0 295:0 296:0 297:1 298:3 299:0 300:0 301:0 302:0 303:0 304:0 305:0 306:3 307:0 308:0 309:2 310:0 311:0 312:2 313:0 314:0 315:0 316:1 317:0 318:0 319:0 320:0 321:0 322:0 323:0 324:0 325:0 326:0 327:0 328:0 329:7 330:0 331:0 332:5 333:0 334:0 335:0 336:9 337:0 338:0 339:1 340:0 341:0 342:0 343:0 344:0 345:0 346:0 347:0 348:0 349:0 350:0 351:0 352:0 353:0 354:0 355:0 356:0 357:0 358:4 359:0 360:0 361:0 362:0 363:0 364:0 365:0 366:0 367:0 368:0 369:0 370:0 371:0 372:1 373:0 374:0 375:0 376:0 377:0 378:9 379:0 380:0 381:0 382:0 383:0 384:0 385:0 386:0 387:0 388:0 389:0 390:0 391:0 392:0 393:0 394:3 395:0 396:0 397:0 398:0 399:0 400:0 401:0 402:0 403:0 404:0 405:0 406:0 407:0 408:0 409:0 410:0 411:0 412:0 413:0 414:0 415:0 416:0 417:0 418:0 419:0 420:0 421:1 422:0 423:0 424:0 425:0 426:0 427:0 428:0 429:0 430:4 431:0 432:2 433:0 434:0 435:0 436:0 437:0 438:0 439:0 440:0 441:0 442:0 443:0 444:0 445:0 446:0 447:0 448:0 449:0 450:0 451:0 452:0 453:0 454:0 455:0 456:0 457:0 458:0 459:0 460:0 461:0 462:0 463:0 464:0 465:0 466:0 467:0 468:0 469:0 470:0 471:0 472:1 473:0 474:0 475:0 476:0 477:0 478:0 479:1 480:0 481:0 482:0 483:1 484:0 485:0 486:0 487:0 488:0 489:0 490:0 491:0 492:0 493:2 494:0 495:0 496:0 497:0 498:0 499:0 500:0 501:0 502:0 503:0 504:0 505:0 506:0 507:0 508:1 509:0 510:0 511:0 512:0 513:0 514:0 515:0 516:0 517:0 518:0 519:0 520:0 521:0 522:0 523:0 524:1 525:0 526:0 527:0 528:0 529:0 530:0 531:0 532:0 533:0 534:0 535:0 536:0 537:0 538:0 539:0 540:0 541:0 542:0 543:0 544:0 545:0 546:4 547:0 548:0 549:0 550:0 551:0 552:0 553:0 554:0 555:0 556:0 557:0 558:0 559:0 560:0 561:0 562:0 563:0 564:0 565:4 566:0 567:0 568:1 569:0 570:0 571:0 572:0 573:0 574:0 575:0 576:1 577:0 578:0 579:0 580:0 581:0 582:0 583:0 584:0 585:0 586:0 587:0 588:0 589:0 590:0 591:0 592:0 593:0 594:0 595:0 596:0 597:0 598:0 599:0 600:0 601:0 602:0 603:0 604:0 605:0 606:0 607:0 608:4 609:0 610:0 611:0 612:1 613:0 614:1 615:0 616:0 617:0 618:0 619:0 620:0 621:0 622:0 623:0 624:0 625:0 626:0 627:0 628:0 629:0 630:0 631:0 632:0 633:0 634:1 635:0 636:0 637:0 638:0 639:0 640:0 641:0 642:0 643:0 644:0 645:0 646:1 647:0 648:0 649:0 650:0 651:0 652:0 653:0 654:1 655:0 656:0 657:0 658:0 659:0 660:0 661:0 662:0 663:0 664:1 665:0 666:0 667:0 668:0 669:0 670:0 671:3 672:0 673:0 674:0 675:0 676:0 677:0 678:0 679:0 680:0 681:0 682:0 683:0 684:0 685:0 686:0 687:0 688:0 689:0 690:0 691:0 692:0 693:0 694:0 695:1 696:0 697:0 698:0 699:0 700:0 701:1 702:0 703:0 704:0 705:0 706:0 707:0 708:0 709:0 710:0 711:0 712:0 713:0 714:0 715:0 716:2 717:0 718:0 719:0 720:0 721:0 722:0 723:0 724:0 725:0 726:0 727:0 728:0 729:0 730:0 731:0 732:0 733:2 734:0 735:0 736:0 737:0 738:0 739:0 740:0 741:0 742:0 743:0 744:0 745:0 746:0 747:0 748:0 749:0 750:0 751:0 752:0 753:0 754:0 755:0 756:0 757:0 758:3 759:0 760:0 761:0 762:0 763:0 764:0 765:0 766:0 767:0 768:0 769:0 770:0 771:0 772:0 773:0 774:0 775:0 776:0 777:0 778:0 779:0 780:0 781:0 782:0 783:0 784:0 785:0 786:0 787:0 788:0 789:0 790:0 791:0 792:0 793:1 794:0 795:0 796:0 797:0 798:4 799:0 800:0 
